// #### Generated By: http://www.cufonfonts.com ####
/*!
 * The following copyright notice may not be removed under any circumstances.
 * 
 * Copyright:
 * Copyright (c) 2004-2008, SIL International (http://www.sil.org/). Licensed under
 * the SIL Open Font License, Version 1.1 (http://scripts.sil.org/OFL), with
 * Reserved Font Names "Andika" and "SIL".
 * 
 * Trademark:
 * Andika is a trademark of SIL International.
 * 
 * Description:
 * Copyright (c) 2004-2008 by SIL International.
 * 
 * Manufacturer:
 * SIL International
 * 
 * Designer:
 * Annie Olsen & Victor Gaultney
 * 
 * Vendor URL:
 * http://scripts.sil.org
 * 
 * License information:
 * http://scripts.sil.org/OFL
 */
Cufon.registerFont({"w":1200,"face":{"font-family":"Andika Basic","font-weight":400,"font-stretch":"normal","units-per-em":"2048","panose-1":"2 0 0 0 0 0 0 0 0 0","ascent":"1638","descent":"-410","bbox":"-995 -2620.18 2101 490","underline-thickness":"80","underline-position":"-70","unicode-range":"U+0020-U+FB02"},"glyphs":{" ":{"w":550},"!":{"d":"360,25v-81,0,-135,-54,-135,-135v0,-81,54,-135,135,-135v81,0,135,54,135,135v0,81,-54,135,-135,135xm490,-1510v-33,348,-35,705,-40,1070r-175,0r-9,-481v-2,-89,-5,-181,-10,-279v-5,-98,-12,-201,-21,-310r255,0","w":764},"\"":{"d":"785,-1585v-23,181,-33,352,-40,540r-125,0r-10,-231v-3,-43,-6,-90,-11,-141v-5,-51,-11,-107,-19,-168r205,0xm445,-1585v-23,181,-33,352,-40,540r-125,0r-10,-231v-3,-43,-6,-90,-11,-141v-5,-51,-11,-107,-19,-168r205,0","w":1025},"#":{"d":"427,-725r275,0r67,-235r-275,0xm84,-1110r303,0r100,-350r150,0r-100,350r275,0r100,-350r150,0r-100,350r213,0r0,150r-256,0r-67,235r264,0r0,150r-307,0r-107,375r-150,0r107,-375r-275,0r-107,375r-150,0r107,-375r-209,0r0,-150r252,0r67,-235r-260,0r0,-150"},"$":{"d":"553,-1222v-116,23,-218,108,-181,250v21,80,97,105,181,138r0,-388xm683,-174v117,-31,220,-126,181,-278v-21,-83,-97,-114,-181,-151r0,429xm553,-649v-197,-62,-363,-128,-363,-368v0,-155,88,-257,198,-318v46,-26,101,-43,165,-50r0,-215r130,0r0,213v124,8,208,36,303,81r-37,179v-91,-49,-159,-82,-266,-97r0,433v190,62,363,139,363,377v0,239,-158,361,-363,406r0,228r-130,0r0,-220v-165,-7,-302,-51,-400,-124r42,-189v96,86,206,140,358,151r0,-487"},"%":{"d":"399,-1480v218,0,291,164,291,391v0,237,-74,404,-300,404v-221,0,-290,-163,-290,-393v0,-234,77,-402,299,-402xm394,-825v120,0,131,-122,131,-251v0,-136,-3,-264,-131,-264v-121,0,-129,120,-129,249v0,136,3,266,129,266xm1239,-1480r-780,1505r-168,0r782,-1505r166,0xm1135,-770v218,0,291,164,291,391v0,237,-74,404,-300,404v-221,0,-290,-163,-290,-393v0,-234,77,-402,299,-402xm1130,-115v120,0,131,-122,131,-251v0,-136,-3,-264,-131,-264v-121,0,-129,120,-129,249v0,136,3,266,129,266","w":1526},"&":{"d":"475,-1350v-141,0,-203,149,-121,268v29,41,59,91,99,143v56,-56,100,-106,131,-149v31,-43,46,-82,46,-117v0,-91,-64,-145,-155,-145xm241,-455v-53,184,85,347,280,295v85,-23,157,-74,220,-124r-257,-355r-52,-67v-81,77,-159,141,-191,251xm155,-1190v0,-203,138,-295,335,-295v135,0,230,67,274,164v74,162,-33,312,-117,405v-29,34,-61,68,-96,102r99,134r110,156r97,131v47,-52,92,-113,118,-177r105,135v-30,58,-73,119,-121,170v74,85,134,153,216,195v-46,33,-87,82,-150,95v-14,0,-36,-15,-67,-46v-31,-31,-69,-75,-115,-132v-125,108,-340,236,-557,147v-158,-65,-279,-257,-214,-477v44,-149,157,-239,265,-345v-74,-106,-182,-198,-182,-362","w":1222},"'":{"d":"405,-1585v-23,181,-33,352,-40,540r-125,0r-10,-231v-3,-43,-6,-90,-11,-141v-5,-51,-11,-107,-19,-168r205,0","w":605},"(":{"d":"535,410v-246,-257,-420,-574,-420,-1035v0,-467,173,-807,440,-1015r75,155v-214,185,-325,466,-325,860v-1,405,127,675,325,890","w":795},")":{"d":"240,-1640v267,208,440,548,440,1015v0,459,-175,779,-420,1035r-95,-145v192,-220,325,-487,325,-890v0,-386,-120,-671,-325,-860","w":795},"*":{"d":"540,-1140v5,107,14,200,30,300r-140,0r20,-300r-110,76r-135,104r-70,-125r152,-72r118,-63r-123,-57r-157,-63r75,-125r138,95r112,70v-4,-106,-22,-201,-35,-300r145,0r-18,235v-1,21,-2,43,-2,65r111,-76r134,-104r70,125r-213,105r-57,30r122,57r158,63r-75,125r-195,-131","w":1028},"+":{"d":"155,-810r370,0r0,-370r150,0r0,370r370,0r0,150r-370,0r0,375r-150,0r0,-375r-370,0r0,-150"},",":{"d":"320,-250v168,0,170,218,102,347v-31,59,-73,118,-132,173r-100,-40v62,-69,127,-157,135,-280r-140,0r0,-100v15,-61,65,-100,135,-100","w":650},"-":{"d":"80,-705r700,0r0,150r-700,0r0,-150","w":860},".":{"d":"320,25v-81,0,-135,-54,-135,-135v0,-81,54,-135,135,-135v81,0,135,54,135,135v0,81,-54,135,-135,135","w":640},"\/":{"d":"990,-1600r-830,1845r-150,0r830,-1845r150,0","w":1000},"0":{"d":"1072,-1087v50,184,48,537,-2,715v-67,239,-196,397,-480,397v-399,0,-496,-323,-500,-745v-1,-258,49,-456,152,-594v81,-107,200,-171,368,-171v274,0,399,165,462,398xm730,-177v198,-107,205,-527,160,-817v-28,-182,-93,-321,-290,-321v-188,0,-259,137,-288,309v-49,290,-41,721,156,829v75,41,187,41,262,0"},"1":{"d":"535,-1260r-300,172r-25,-180r345,-212r170,0r0,1310r315,0r0,170r-820,0r0,-170r315,0r0,-1090"},"2":{"d":"125,-1290v107,-145,373,-250,607,-166v158,57,278,181,278,391v0,220,-122,370,-228,506v-116,148,-252,273,-392,394r516,-3v37,-1,71,-2,100,-4v29,-2,54,-5,74,-8r0,180r-960,0r0,-170v211,-155,423,-348,571,-568v59,-88,119,-186,119,-307v0,-175,-114,-260,-285,-260v-164,0,-272,92,-355,185"},"3":{"d":"180,-1325v107,-128,354,-202,576,-136v151,45,284,136,284,321v0,155,-104,243,-210,300v-38,20,-75,33,-110,40v205,44,370,151,370,395v0,216,-165,334,-338,396v-142,51,-319,44,-452,-11v-74,-30,-137,-71,-190,-120r25,-215v112,131,305,253,546,188v117,-31,214,-111,214,-258v0,-151,-123,-218,-251,-255v-70,-20,-147,-21,-234,-20r0,-170v190,10,332,-46,410,-154v20,-29,30,-60,30,-91v0,-139,-122,-192,-260,-195v-180,-4,-285,62,-375,155"},"4":{"d":"263,-550r482,0r0,-680xm935,-395r0,395r-190,0r0,-395r-655,0r0,-155r655,-930r190,0r0,930r190,0r0,155r-190,0"},"5":{"d":"750,-686v-143,-97,-406,-68,-555,1r0,-775r805,0r0,190v-180,-36,-411,-14,-620,-20r0,370v116,-14,265,-15,366,24v173,67,314,194,314,421v0,251,-135,399,-326,466v-154,55,-385,39,-512,-22v-29,-14,-61,-30,-92,-49r30,-210v99,81,197,138,370,135v208,-4,336,-107,340,-315v2,-106,-55,-172,-120,-216"},"6":{"d":"920,-435v0,-181,-94,-283,-275,-285v-149,-1,-261,60,-338,139v13,176,72,322,189,395v108,67,281,26,345,-46v44,-49,79,-116,79,-203xm307,-733v90,-86,196,-162,358,-162v215,0,356,97,419,253v46,112,39,270,-6,378v-74,178,-232,289,-478,289v-272,0,-399,-181,-457,-410v-71,-278,-21,-648,97,-836v106,-169,283,-288,568,-260v93,9,160,43,225,86r-44,195v-92,-105,-278,-147,-429,-79v-177,79,-241,286,-253,546"},"7":{"d":"1090,-1300v-279,380,-490,809,-630,1300r-185,0v27,-94,55,-183,83,-266v128,-390,303,-721,512,-1029v-252,5,-561,-14,-770,20r0,-185r990,0r0,160"},"8":{"d":"600,-145v186,0,310,-95,310,-280v0,-140,-81,-223,-186,-264v-122,-47,-281,-7,-346,59v-48,49,-88,113,-88,205v0,185,124,280,310,280xm600,-865v156,0,260,-82,260,-240v0,-151,-108,-220,-260,-220v-152,0,-260,69,-260,220v0,158,104,240,260,240xm855,-795v132,73,255,187,255,390v0,223,-147,346,-322,401v-279,88,-556,-29,-654,-220v-27,-54,-44,-113,-44,-181v2,-210,125,-314,260,-390v-104,-59,-200,-145,-200,-310v0,-200,134,-307,292,-355v244,-74,491,20,572,192v23,48,36,102,36,163v0,166,-95,247,-195,310"},"9":{"d":"306,-1036v-4,208,163,311,374,264v99,-22,176,-77,234,-143v-26,-207,-93,-395,-318,-395v-177,0,-286,99,-290,274xm917,-748v-85,84,-204,162,-358,162v-213,0,-352,-102,-417,-254v-47,-111,-37,-263,11,-366v76,-166,231,-279,463,-279v272,0,403,191,464,419v73,276,23,639,-94,827v-105,169,-284,288,-568,260v-93,-9,-160,-43,-225,-86r44,-195v66,66,147,110,274,110v315,0,391,-272,406,-598"},":":{"d":"320,25v-81,0,-135,-54,-135,-135v0,-81,54,-135,135,-135v81,0,135,54,135,135v0,81,-54,135,-135,135xm320,-655v-81,0,-135,-54,-135,-135v0,-81,54,-135,135,-135v81,0,135,54,135,135v0,81,-54,135,-135,135","w":640},";":{"d":"320,-250v168,0,170,218,102,347v-31,59,-73,118,-132,173r-100,-40v62,-69,127,-157,135,-280r-140,0r0,-100v15,-61,65,-100,135,-100xm320,-655v-81,0,-135,-54,-135,-135v0,-81,54,-135,135,-135v81,0,135,54,135,135v0,81,-54,135,-135,135","w":650},"<":{"d":"1080,-245r-980,-400r0,-170r980,-400r0,180r-790,305r790,305r0,180"},"=":{"d":"120,-980r960,0r0,150r-960,0r0,-150xm120,-630r960,0r0,150r-960,0r0,-150"},">":{"d":"120,-1215r980,400r0,170r-980,400r0,-180r790,-305r-790,-305r0,-180"},"?":{"d":"450,25v-81,0,-135,-54,-135,-135v0,-81,54,-135,135,-135v81,0,135,54,135,135v0,81,-54,135,-135,135xm140,-1430v73,-66,184,-110,320,-110v217,0,370,89,370,300v0,238,-219,292,-266,496v-20,88,-23,182,-24,304r-185,0v-1,-234,28,-415,130,-540r59,-76v37,-54,81,-95,81,-174v0,-97,-85,-135,-193,-135v-105,0,-186,48,-247,114","w":1050},"@":{"d":"1025,-871v-65,-29,-209,-50,-280,-6v-88,54,-142,162,-142,304v0,130,31,239,145,253v103,-12,168,-87,222,-156v23,-29,40,-61,55,-94r0,-301xm1250,118v-157,113,-456,154,-677,63v-282,-116,-478,-359,-478,-755v0,-371,158,-604,397,-740v172,-98,472,-125,682,-42v256,101,433,312,433,658v0,232,-84,400,-229,483v-42,24,-86,34,-130,34v-134,-1,-167,-102,-207,-199v-84,106,-221,253,-407,176v-114,-47,-181,-163,-181,-329v-1,-217,95,-373,221,-456v130,-86,366,-45,500,9r0,350v0,108,7,187,30,254v20,58,77,73,132,36v132,-90,159,-373,90,-562v-80,-221,-260,-367,-558,-367v-295,0,-481,175,-577,394v-71,162,-67,399,-3,563v91,233,274,407,580,407v112,0,202,-34,277,-86","w":1702},"A":{"d":"433,-540r507,0r-255,-725xm994,-385r-615,0r-134,385r-205,0r94,-232r446,-1228r215,0r445,1228r95,232r-205,0","w":1395},"B":{"d":"820,-800v180,48,320,149,320,380v0,307,-214,437,-535,430r-445,-10v15,-88,15,-202,15,-311r-1,-963v-1,-40,-3,-76,-5,-108v-2,-32,-5,-58,-9,-78r312,-10v327,-13,599,30,593,350v-3,181,-113,267,-245,320xm945,-420v0,-201,-128,-281,-345,-280r-235,0r0,545r245,5v194,-3,335,-73,335,-270xm590,-1315r-225,5r0,455r195,0v181,-2,307,-63,310,-235v3,-169,-107,-229,-280,-225","w":1285},"C":{"d":"760,-150v192,0,326,-87,430,-185r40,195v-153,146,-506,221,-753,114v-243,-105,-382,-339,-382,-684v0,-373,161,-614,421,-726v182,-78,439,-53,589,24v37,19,74,40,110,67r-60,180v-97,-85,-213,-150,-385,-150v-333,0,-480,237,-480,580v0,254,101,445,270,537v58,32,125,48,200,48","w":1355},"D":{"d":"160,0v19,-132,15,-301,15,-455r-1,-819v-1,-40,-3,-76,-5,-108v-2,-32,-5,-58,-9,-78r455,-10v458,13,700,260,700,730v0,430,-210,667,-565,736v-185,36,-387,5,-590,4xm590,-1310r-225,5r0,1140v23,2,53,5,91,7v139,10,289,-2,386,-52v172,-88,278,-249,278,-510v0,-377,-168,-585,-530,-590","w":1435},"E":{"d":"160,0v31,-291,15,-694,15,-1025v0,-99,-1,-185,-2,-261v-1,-76,-6,-134,-13,-174r850,0r0,165r-645,0r0,450r570,0r0,160r-570,0r0,520r514,-2v67,-1,121,-6,161,-13r0,180r-880,0","w":1160},"F":{"d":"160,0v18,-114,15,-279,15,-435r-1,-849v-1,-38,-3,-71,-5,-101v-2,-30,-5,-55,-9,-75r870,0r0,165r-665,0r0,460r580,0r0,160r-580,0r2,503v1,76,6,133,13,172r-220,0","w":1150},"G":{"d":"757,-150v144,1,235,-39,328,-95r0,-335r-350,0r0,-165r540,0r0,590v-148,102,-292,180,-530,180v-325,0,-512,-176,-601,-427v-65,-181,-65,-461,4,-640v110,-285,351,-478,754,-438v148,15,254,65,358,135r-65,180v-109,-87,-225,-150,-412,-150v-335,0,-493,229,-493,570v0,270,93,465,274,554v58,27,122,41,193,41","w":1420},"H":{"d":"1290,-1460v-31,291,-15,694,-15,1025v0,99,1,185,2,261v1,76,6,134,13,174r-205,0r0,-675r-720,0r0,675r-205,0v31,-291,15,-694,15,-1025v0,-99,-1,-185,-2,-261v-1,-76,-6,-134,-13,-174r205,0r0,625r720,0r0,-625r205,0","w":1475},"I":{"d":"815,-1460r0,145r-245,0r0,1170r245,0r0,145r-675,0r0,-145r240,0r0,-1170r-240,0r0,-145r675,0","w":975},"J":{"d":"780,-535v5,364,-146,599,-514,553v-94,-12,-179,-50,-231,-108r45,-185v60,66,141,120,260,120v183,0,251,-138,250,-330r-2,-769v-1,-41,-3,-79,-5,-114v-2,-35,-5,-65,-8,-92r205,0r0,925","w":965},"K":{"d":"160,0v31,-291,15,-694,15,-1025v0,-99,-1,-185,-2,-261v-1,-76,-6,-134,-13,-174r205,0r0,673r560,-673r240,0r-606,687r671,773r-245,0r-620,-717r0,717r-205,0","w":1310},"L":{"d":"160,0v31,-291,15,-694,15,-1025v0,-99,-1,-185,-2,-261v-1,-76,-6,-134,-13,-174r205,0r0,1295r486,-3v37,-1,71,-2,100,-4v29,-2,54,-5,74,-8r0,180r-865,0","w":1080},"M":{"d":"455,-1460r430,1255r435,-1255r220,0r54,1283r16,177r-185,0r-28,-1198r-412,1198r-195,0r-414,-1195r-31,1195r-185,0r30,-466r40,-994r225,0","w":1795},"N":{"d":"1315,-1460v-18,128,-15,285,-15,435r0,1025r-165,0r-795,-1152r0,1152r-180,0v31,-291,15,-694,15,-1025v0,-99,-1,-185,-2,-261v-1,-76,-6,-134,-13,-174r180,0r795,1157r0,-1157r180,0","w":1500},"O":{"d":"1290,-1058v66,181,65,460,-4,640v-68,178,-183,316,-343,391v-147,69,-317,71,-465,3v-237,-109,-383,-347,-383,-696v0,-325,132,-540,327,-673v135,-92,364,-125,538,-43v155,73,267,205,330,378xm1113,-477v68,-223,20,-539,-85,-674v-70,-89,-164,-159,-308,-159v-225,0,-342,147,-398,330v-68,223,-19,536,86,670v71,90,165,160,312,160v222,0,337,-145,393,-327","w":1460},"P":{"d":"585,-1470v316,4,530,129,530,440v0,356,-260,498,-643,472v-39,-3,-74,-4,-107,-7r2,393v1,76,6,133,13,172r-220,0v18,-114,15,-279,15,-435r-1,-839v-1,-40,-3,-76,-5,-108v-2,-32,-5,-58,-9,-78r268,-8v50,-1,103,-2,157,-2xm925,-1010v5,-286,-260,-322,-560,-295r0,585v66,8,130,10,205,10v224,1,351,-87,355,-300","w":1195},"Q":{"d":"1113,-477v68,-223,20,-539,-85,-674v-70,-89,-164,-159,-308,-159v-225,0,-342,147,-398,330v-68,223,-19,536,86,670v71,90,165,160,312,160v222,0,337,-145,393,-327xm875,0v-128,41,-283,31,-401,-24v-235,-110,-379,-348,-379,-696v0,-325,132,-540,327,-673v135,-92,366,-126,540,-43v235,112,378,348,378,696v0,289,-92,508,-260,635v116,69,223,130,375,150v-30,43,-55,95,-95,127v-56,46,-127,-5,-178,-31r-180,-92v-42,-19,-85,-44,-127,-49","w":1475},"R":{"d":"1090,-1060v-2,239,-145,358,-329,415r361,488r123,157r-255,0r-422,-625r-203,0r3,452v1,37,2,71,4,100v2,29,5,54,8,73r-220,0v18,-114,15,-279,15,-435r-1,-839v-1,-40,-3,-76,-5,-108v-2,-32,-5,-58,-9,-78r243,-8v374,-20,690,49,687,408xm555,-1310r-190,5r0,525r190,0v205,2,345,-80,345,-265v0,-201,-138,-265,-345,-265","w":1305},"S":{"d":"140,-315v114,100,241,165,425,165v134,0,235,-56,284,-146v28,-50,36,-125,13,-184v-26,-66,-84,-99,-159,-136v-92,-46,-291,-94,-379,-146v-114,-68,-189,-149,-189,-318v0,-184,113,-304,256,-366v183,-78,471,-29,609,51r-40,195v-124,-71,-293,-146,-474,-92v-105,31,-196,137,-150,272v21,61,77,89,147,120v88,41,257,80,347,128v130,70,235,158,235,347v0,225,-136,357,-307,417v-229,80,-523,7,-663,-102","w":1175},"T":{"d":"525,-1295v-166,3,-341,-11,-480,20r0,-185r1155,0r0,185v-141,-31,-317,-17,-485,-20r0,860v1,159,-2,320,20,435r-230,0v22,-113,20,-278,20,-435r0,-860","w":1265},"U":{"d":"710,-135v258,0,340,-168,340,-425r0,-900r205,0v-28,265,-11,640,-15,945v-5,347,-179,540,-530,540v-353,0,-534,-192,-535,-540r-3,-771v-2,-76,-5,-134,-12,-174r205,0r0,900v-1,259,84,425,345,425","w":1440},"V":{"d":"1095,-1460r215,0r-58,140r-82,225r-385,1095r-225,0r-525,-1460r215,0r422,1265","w":1365},"W":{"d":"1484,-186r311,-1274r220,0r-49,140r-66,225r-305,1095r-225,0r-343,-1176r-342,1176r-225,0r-370,-1320r-50,-140r220,0r316,1274r359,-1274r185,0","w":2080},"X":{"d":"642,-614r-372,614r-230,0r88,-124r137,-216r272,-441r-289,-459r-62,-90r-96,-130r235,0r331,526r319,-526r235,0r-46,58v-144,199,-270,424,-403,635r355,560r102,149r42,58r-230,0","w":1325},"Y":{"d":"540,0v23,-161,12,-409,15,-611r-379,-645v-42,-69,-93,-138,-141,-204r230,0r395,661r375,-661r230,0r-78,114r-117,188r-325,555r2,429v1,76,6,134,13,174r-220,0","w":1320},"Z":{"d":"870,-1295v-247,5,-523,-14,-735,20r0,-185r970,0r0,130r-795,1165r390,0v98,0,185,-2,261,-5v76,-3,134,-8,174,-15r0,185r-1060,0r0,-125","w":1230},"[":{"d":"200,410r0,-2010r440,0r0,150r-255,0r0,1710r255,0r0,150r-440,0","w":790},"\\":{"d":"360,-1600r470,1685r-145,30r-475,-1685","w":1025},"]":{"d":"150,410r0,-150r255,0r0,-1710r-255,0r0,-150r440,0r0,2010r-440,0","w":790},"^":{"d":"95,-850r380,-750r170,0r380,750r-180,0r-285,-580r-285,580r-180,0","w":1120},"_":{"d":"0,170r1274,0r0,165r-1274,0r0,-165","w":1274},"`":{"d":"230,-1600r350,430r-160,0r-420,-430r230,0","w":580},"a":{"d":"815,-830v-89,-37,-254,-56,-349,-7v-165,85,-232,426,-120,617v40,69,131,97,216,49v108,-62,199,-167,253,-284r0,-375xm380,-976v162,-105,456,-57,620,11v2,338,-21,736,75,965r-175,0v-26,-68,-52,-139,-65,-220v-95,112,-190,245,-380,245v-168,0,-269,-108,-319,-243v-67,-180,-16,-445,64,-567v51,-78,105,-143,180,-191","w":1150},"b":{"d":"330,-825v89,-111,193,-215,385,-215v186,0,273,143,319,299v38,131,32,310,-8,434v-72,223,-264,369,-569,323v-114,-17,-212,-50,-312,-81r-1,-1311v-1,-43,-3,-85,-5,-124v-2,-39,-5,-72,-9,-100r200,0r0,775xm330,-185v99,44,252,84,367,28v115,-56,183,-178,183,-348v0,-189,-46,-360,-225,-360v-128,0,-202,85,-263,167v-25,34,-45,72,-62,113r0,400","w":1155},"c":{"d":"925,-85v-88,68,-189,112,-345,110v-233,-3,-376,-127,-447,-300v-50,-124,-50,-299,-1,-428v73,-193,225,-333,483,-337v131,-2,224,34,300,85r-35,180v-98,-78,-259,-138,-404,-75v-121,52,-191,175,-191,350v0,167,67,284,184,334v158,67,343,-2,436,-94","w":1020},"d":{"d":"845,-795v-94,-55,-250,-111,-374,-49v-113,56,-181,182,-181,354v0,211,56,355,250,355v121,0,194,-89,251,-167v23,-31,40,-65,54,-98r0,-395xm845,-955v-3,-217,11,-470,-25,-645r210,0r0,1070v-1,218,24,388,75,530r-180,0v-18,-45,-42,-126,-55,-185v-84,117,-189,210,-365,210v-207,0,-319,-122,-372,-285v-42,-130,-35,-316,9,-440v67,-190,198,-340,438,-340v108,0,191,46,265,85","w":1190},"e":{"d":"995,-75v-151,82,-403,144,-603,67v-181,-70,-297,-234,-297,-487v0,-254,102,-428,280,-507v59,-26,126,-38,200,-38v319,2,429,225,414,555r-709,0v9,212,108,345,320,345v154,0,268,-34,375,-100xm810,-625v-3,-165,-88,-265,-250,-265v-167,0,-247,104,-272,265r522,0","w":1095},"f":{"d":"425,-850v3,288,-13,604,30,850r-215,0r0,-850r-200,0r0,-145r200,0r0,-175v-3,-270,104,-450,345,-450v88,0,165,31,220,70r-46,150v-43,-32,-106,-60,-174,-60v-204,0,-153,264,-160,465r270,0r0,145r-270,0","w":750},"g":{"d":"805,-830v-95,-36,-256,-61,-350,-6v-107,63,-165,188,-165,351v0,175,29,320,190,320v162,0,253,-118,325,-230r0,-435xm460,5v-247,0,-355,-178,-355,-440v0,-264,105,-456,285,-553v138,-75,371,-54,514,-4r86,27r0,940v-1,246,-105,401,-282,467v-193,72,-408,-7,-528,-92r65,-155v82,56,169,115,290,115v170,0,269,-114,270,-300r0,-185v-81,98,-180,180,-345,180","w":1125},"h":{"d":"330,-830v82,-119,207,-210,380,-210v232,0,330,163,330,415r0,625r-185,0r0,-550v-1,-181,-25,-320,-200,-315v-135,4,-216,95,-276,183v-23,34,-38,68,-49,102r0,580r-185,0r-2,-1414v-1,-81,-6,-143,-13,-186r200,0r0,770","w":1175},"i":{"d":"280,-1210v-80,0,-125,-55,-125,-135v0,-80,45,-135,125,-135v81,0,130,55,130,135v0,80,-49,135,-130,135xm375,-1020r1,658r10,261v2,41,6,74,9,101r-205,0r-2,-808v-1,-42,-3,-82,-5,-118v-2,-36,-5,-68,-8,-94r200,0","w":565},"j":{"d":"310,-1210v-80,0,-125,-55,-125,-135v0,-80,45,-135,125,-135v81,0,130,55,130,135v0,80,-49,135,-130,135xm40,300v143,0,180,-122,180,-275r-2,-833v-1,-42,-3,-82,-5,-118v-2,-36,-5,-68,-8,-94r200,0r0,995v5,315,-111,524,-425,491v-63,-7,-126,-31,-170,-61r35,-165v48,32,119,60,195,60","w":595},"k":{"d":"145,0r-2,-1414v-1,-81,-6,-143,-13,-186r200,0r0,999r405,-419r250,0r-495,447r525,573r-245,0r-440,-520r0,520r-185,0","w":1035},"l":{"d":"375,-1600r1,1238r10,260v2,41,6,75,9,102r-205,0r0,-1130v0,-97,-2,-185,-5,-264v-3,-79,-8,-148,-15,-206r205,0","w":565},"m":{"d":"1200,-865v-137,0,-204,104,-255,205r0,660r-185,0r0,-570v-1,-103,-1,-179,-30,-240v-20,-43,-55,-55,-115,-55v-136,0,-205,105,-255,205r0,660r-185,0v-7,-340,28,-764,-50,-1020r180,0v14,40,25,108,32,155v86,-96,168,-175,338,-175v132,0,207,73,246,168v87,-92,175,-166,339,-168v219,-3,270,159,270,380r0,660r-185,0r0,-550v-1,-108,-2,-189,-31,-254v-20,-45,-53,-61,-114,-61","w":1685},"n":{"d":"324,-825v106,-125,207,-215,395,-215v232,0,330,163,330,415r0,625r-185,0r0,-550v-2,-181,-24,-320,-200,-315v-135,4,-216,95,-276,183v-23,34,-38,68,-49,102r0,580r-185,0v-8,-339,29,-764,-50,-1020r180,0v19,55,28,131,40,195","w":1185},"o":{"d":"860,-505v0,-214,-85,-375,-290,-375v-201,0,-290,164,-290,375v0,212,86,370,290,370v200,0,290,-160,290,-370xm129,-277v-45,-130,-46,-332,5,-457v72,-178,211,-306,446,-306v315,0,465,213,465,535v0,256,-116,420,-298,495v-114,47,-263,46,-375,0v-118,-48,-199,-140,-243,-267","w":1140},"p":{"d":"340,-260v90,57,145,120,280,120v137,0,213,-99,248,-212v55,-178,11,-421,-112,-492v-95,-54,-213,-6,-272,49v-60,56,-110,132,-144,220r0,315xm340,-85v2,198,-9,412,25,575r-210,0r0,-975v-2,-199,4,-394,-50,-535r180,0v19,49,33,116,40,190v86,-107,188,-210,370,-210v201,0,302,138,353,302v40,131,36,310,-9,434v-65,181,-190,329,-419,329v-128,0,-200,-56,-280,-110","w":1170},"q":{"d":"795,-830v-93,-36,-249,-61,-340,-6v-107,64,-165,188,-165,351v0,188,60,340,230,340v132,0,211,-108,275,-220r0,-465xm795,-140v-101,127,-242,211,-430,138v-158,-61,-260,-208,-260,-433v0,-264,105,-456,285,-553v136,-73,366,-55,506,-4r84,27r0,1115v0,127,5,238,25,340r-210,0r0,-630","w":1130},"r":{"d":"556,-719v-125,178,-264,431,-196,719r-205,0v-8,-339,29,-764,-50,-1020r180,0v46,119,51,292,50,460v57,-157,113,-280,197,-381v62,-75,146,-115,268,-92v21,5,43,12,65,23r-30,185v-64,-26,-135,-31,-191,15v-29,24,-61,52,-88,91","w":890},"s":{"d":"500,-135v104,0,200,-41,200,-135v0,-88,-66,-112,-138,-143v-72,-31,-219,-60,-286,-94v-100,-52,-163,-142,-138,-287v46,-263,472,-305,697,-166r-35,175v-79,-46,-171,-93,-295,-95v-123,-2,-220,56,-187,176v61,95,245,91,360,142v109,48,202,116,202,267v0,160,-108,252,-234,295v-189,64,-422,-1,-536,-90r50,-180v84,70,194,135,340,135","w":965},"t":{"d":"512,25v-190,0,-282,-98,-282,-295r0,-580r-200,0r0,-145r200,0r0,-325r185,0r0,325r325,0r0,145r-325,0r0,460v4,133,0,250,128,250v83,0,148,-37,217,-75r0,160v-74,49,-149,80,-248,80","w":835},"u":{"d":"865,-200v-102,121,-206,225,-390,225v-213,0,-320,-143,-320,-430v0,-211,11,-433,-20,-615r205,0r0,555v3,169,9,325,170,325v125,0,208,-103,272,-184v26,-32,45,-65,58,-96v-3,-206,10,-422,-20,-600r205,0v9,350,-34,765,65,1020r-170,0v-23,-58,-44,-128,-55,-200","w":1185},"v":{"d":"1050,-1020r-182,420r-238,600r-190,0r-295,-738r-125,-282r210,0r305,820r305,-820r210,0","w":1070},"w":{"d":"850,-1020r260,805r210,-805r185,0r-105,355r-185,665r-190,0r-250,-785r-250,785r-190,0r-258,-915r-32,-105r185,0r210,805r260,-805r150,0","w":1550},"x":{"d":"536,-376r-261,376r-225,0r158,-211r220,-317r-204,-285r-164,-207r230,0r260,361r245,-361r225,0r-156,208r-207,302r220,304r158,206r-230,0","w":1085},"y":{"d":"40,225v65,60,223,116,302,25v51,-59,89,-130,127,-224r-279,-691r-65,-153v-25,-57,-56,-124,-95,-202r200,0r323,817r287,-817r200,0r-118,282r-267,738v-58,160,-115,278,-203,378v-76,87,-223,115,-356,70v-40,-15,-79,-36,-116,-63","w":1060},"z":{"d":"290,-870v-56,1,-116,-1,-155,15r0,-165r795,0r0,95r-595,775r430,0v65,0,125,-1,180,-15r0,165r-840,0r0,-110r575,-760r-390,0","w":1040},"{":{"d":"223,-594v-25,-24,-13,-31,15,-55v48,-42,129,-86,172,-131v30,-187,23,-467,56,-655v19,-106,77,-114,158,-149v52,-23,121,-42,176,-56r40,140v-70,30,-160,53,-210,100v-44,176,-9,451,-40,655v-30,41,-94,72,-136,105v-31,24,-31,26,0,50v43,33,104,65,136,105v25,177,10,426,30,615v7,66,51,67,98,92v38,20,81,33,122,48r-40,140v-105,-30,-233,-63,-305,-125v-75,-159,-75,-456,-75,-675v0,-84,-29,-75,-74,-112v-38,-32,-89,-58,-123,-92","w":1000},"|":{"d":"420,-1600r0,1990r-150,0r0,-1990r150,0","w":690},"}":{"d":"762,-649v27,25,40,31,15,55v-54,52,-134,92,-187,144v-30,187,-23,467,-56,655v-19,106,-77,114,-158,149v-52,23,-121,42,-176,56r-40,-140v70,-30,160,-53,210,-100v44,-176,9,-451,40,-655v36,-46,102,-78,148,-115v30,-24,-13,-38,-27,-50v-37,-33,-90,-57,-121,-95v-25,-177,-6,-426,-30,-615v-7,-46,-9,-44,-42,-64v-51,-31,-118,-54,-178,-76r40,-140v105,30,233,63,305,125v75,159,56,457,75,675v7,76,6,63,52,96","w":1000},"~":{"d":"372,-622v-107,-35,-239,-16,-237,102r-120,0v3,-125,59,-224,143,-272v67,-39,130,-29,224,-10v129,26,290,113,451,119v77,3,104,-42,112,-112r120,0v-5,186,-111,319,-315,285v-137,-23,-255,-72,-378,-112","w":1080},"\u00c4":{"d":"433,-540r507,0r-255,-725xm994,-385r-615,0r-134,385r-205,0r94,-232r446,-1228r215,0r445,1228r95,232r-205,0xm477,-1640v-80,0,-127,-55,-127,-135v0,-80,47,-135,127,-135v80,0,128,55,128,135v0,80,-48,135,-128,135xm897,-1640v-80,0,-127,-55,-127,-135v0,-80,47,-135,127,-135v80,0,128,55,128,135v0,80,-48,135,-128,135","w":1395},"\u00c5":{"d":"433,-540r507,0r-255,-725xm994,-385r-615,0r-134,385r-205,0r94,-232r446,-1228r215,0r445,1228r95,232r-205,0xm771,-1616v-190,70,-351,-99,-283,-283v34,-95,160,-162,283,-115v94,36,164,161,115,283v-21,52,-62,96,-115,115xm687,-1715v59,0,100,-41,100,-100v0,-59,-41,-100,-100,-100v-59,0,-100,41,-100,100v0,59,41,100,100,100","w":1395},"\u00c7":{"d":"760,-150v192,0,326,-87,430,-185r40,195v-111,98,-280,159,-480,165r0,70v157,-40,253,123,182,257v-40,75,-123,126,-232,128v-56,1,-96,-20,-135,-40r10,-100v70,54,236,37,235,-70v0,-51,-44,-90,-97,-90v-32,0,-68,13,-88,25r0,-190v-347,-64,-530,-320,-530,-725v0,-373,161,-614,421,-726v182,-78,439,-53,589,24v37,19,74,40,110,67r-60,180v-97,-85,-213,-150,-385,-150v-333,0,-480,237,-480,580v0,254,101,445,270,537v58,32,125,48,200,48","w":1355},"\u00c9":{"d":"160,0v31,-291,15,-694,15,-1025v0,-99,-1,-185,-2,-261v-1,-76,-6,-134,-13,-174r850,0r0,165r-645,0r0,450r570,0r0,160r-570,0r0,520r514,-2v67,-1,121,-6,161,-13r0,180r-880,0xm1000,-2030r-420,430r-160,0r350,-430r230,0","w":1160},"\u00d1":{"d":"1315,-1460v-18,128,-15,285,-15,435r0,1025r-165,0r-795,-1152r0,1152r-180,0v31,-291,15,-694,15,-1025v0,-99,-1,-185,-2,-261v-1,-76,-6,-134,-13,-174r180,0r795,1157r0,-1157r180,0xm572,-1720v-51,-3,-80,38,-85,85r-105,0v2,-104,42,-192,112,-228v148,-77,256,70,408,78v48,3,79,-42,85,-85r105,0v-6,137,-64,250,-198,250v-125,0,-209,-94,-322,-100","w":1500},"\u00d6":{"d":"1290,-1058v66,181,65,460,-4,640v-68,178,-183,316,-343,391v-147,69,-317,71,-465,3v-237,-109,-383,-347,-383,-696v0,-325,132,-540,327,-673v135,-92,364,-125,538,-43v155,73,267,205,330,378xm1113,-477v68,-223,20,-539,-85,-674v-70,-89,-164,-159,-308,-159v-225,0,-342,147,-398,330v-68,223,-19,536,86,670v71,90,165,160,312,160v222,0,337,-145,393,-327xm507,-1640v-80,0,-127,-55,-127,-135v0,-80,47,-135,127,-135v80,0,128,55,128,135v0,80,-48,135,-128,135xm927,-1640v-80,0,-127,-55,-127,-135v0,-80,47,-135,127,-135v80,0,128,55,128,135v0,80,-48,135,-128,135","w":1460},"\u00dc":{"d":"710,-135v258,0,340,-168,340,-425r0,-900r205,0v-28,265,-11,640,-15,945v-5,347,-179,540,-530,540v-353,0,-534,-192,-535,-540r-3,-771v-2,-76,-5,-134,-12,-174r205,0r0,900v-1,259,84,425,345,425xm497,-1640v-80,0,-127,-55,-127,-135v0,-80,47,-135,127,-135v80,0,128,55,128,135v0,80,-48,135,-128,135xm917,-1640v-80,0,-127,-55,-127,-135v0,-80,47,-135,127,-135v80,0,128,55,128,135v0,80,-48,135,-128,135","w":1440},"\u00e7":{"d":"925,-85v-91,71,-202,116,-365,109r0,71v157,-40,253,123,182,257v-40,75,-123,126,-232,128v-56,1,-96,-20,-135,-40r10,-100v70,54,236,37,235,-70v0,-51,-44,-90,-97,-90v-32,0,-68,13,-88,25r0,-201v-207,-64,-340,-228,-340,-494v0,-253,125,-422,305,-506v157,-74,407,-46,515,41r-35,180v-98,-78,-259,-138,-404,-75v-121,52,-191,175,-191,350v0,167,67,284,184,334v158,67,343,-2,436,-94","w":1020},"\u00e9":{"d":"995,-75v-151,82,-403,144,-603,67v-181,-70,-297,-234,-297,-487v0,-254,102,-428,280,-507v59,-26,126,-38,200,-38v319,2,429,225,414,555r-709,0v9,212,108,345,320,345v154,0,268,-34,375,-100xm810,-625v-3,-165,-88,-265,-250,-265v-167,0,-247,104,-272,265r522,0xm969,-1600r-420,430r-160,0r350,-430r230,0","w":1095},"\u00e8":{"d":"995,-75v-151,82,-403,144,-603,67v-181,-70,-297,-234,-297,-487v0,-254,102,-428,280,-507v59,-26,126,-38,200,-38v319,2,429,225,414,555r-709,0v9,212,108,345,320,345v154,0,268,-34,375,-100xm810,-625v-3,-165,-88,-265,-250,-265v-167,0,-247,104,-272,265r522,0xm409,-1600r350,430r-160,0r-420,-430r230,0","w":1095},"\u00ea":{"d":"995,-75v-151,82,-403,144,-603,67v-181,-70,-297,-234,-297,-487v0,-254,102,-428,280,-507v59,-26,126,-38,200,-38v319,2,429,225,414,555r-709,0v9,212,108,345,320,345v154,0,268,-34,375,-100xm810,-625v-3,-165,-88,-265,-250,-265v-167,0,-247,104,-272,265r522,0xm144,-1170r340,-430r170,0r340,430r-150,0r-275,-280r-275,280r-150,0","w":1095},"\u00eb":{"d":"995,-75v-151,82,-403,144,-603,67v-181,-70,-297,-234,-297,-487v0,-254,102,-428,280,-507v59,-26,126,-38,200,-38v319,2,429,225,414,555r-709,0v9,212,108,345,320,345v154,0,268,-34,375,-100xm810,-625v-3,-165,-88,-265,-250,-265v-167,0,-247,104,-272,265r522,0xm359,-1210v-80,0,-127,-55,-127,-135v0,-80,47,-135,127,-135v80,0,128,55,128,135v0,80,-48,135,-128,135xm779,-1210v-80,0,-127,-55,-127,-135v0,-80,47,-135,127,-135v80,0,128,55,128,135v0,80,-48,135,-128,135","w":1095},"\u00ed":{"d":"355,-1020r1,658r10,261v2,41,6,74,9,101r-205,0r-2,-808v-1,-42,-3,-82,-5,-118v-2,-36,-5,-68,-8,-94r200,0xm665,-1600r-420,430r-160,0r350,-430r230,0","w":530},"\u00ec":{"d":"355,-1020r1,658r10,261v2,41,6,74,9,101r-205,0r-2,-808v-1,-42,-3,-82,-5,-118v-2,-36,-5,-68,-8,-94r200,0xm105,-1600r350,430r-160,0r-420,-430r230,0","w":530},"\u00ee":{"d":"355,-1020r1,658r10,261v2,41,6,74,9,101r-205,0r-2,-808v-1,-42,-3,-82,-5,-118v-2,-36,-5,-68,-8,-94r200,0xm-160,-1170r340,-430r170,0r340,430r-150,0r-275,-280r-275,280r-150,0","w":530},"\u00ef":{"d":"355,-1020r1,658r10,261v2,41,6,74,9,101r-205,0r-2,-808v-1,-42,-3,-82,-5,-118v-2,-36,-5,-68,-8,-94r200,0xm55,-1210v-80,0,-127,-55,-127,-135v0,-80,47,-135,127,-135v80,0,128,55,128,135v0,80,-48,135,-128,135xm475,-1210v-80,0,-127,-55,-127,-135v0,-80,47,-135,127,-135v80,0,128,55,128,135v0,80,-48,135,-128,135","w":530},"\u00f1":{"d":"324,-825v106,-125,207,-215,395,-215v232,0,330,163,330,415r0,625r-185,0r0,-550v-2,-181,-24,-320,-200,-315v-135,4,-216,95,-276,183v-23,34,-38,68,-49,102r0,580r-185,0v-8,-339,29,-764,-50,-1020r180,0v19,55,28,131,40,195xm434,-1290v-51,-3,-80,38,-85,85r-105,0v2,-104,42,-192,112,-228v148,-77,256,70,408,78v48,3,79,-42,85,-85r105,0v-6,137,-64,250,-198,250v-125,0,-209,-94,-322,-100","w":1185},"\u00f3":{"d":"860,-505v0,-214,-85,-375,-290,-375v-201,0,-290,164,-290,375v0,212,86,370,290,370v200,0,290,-160,290,-370xm129,-277v-45,-130,-46,-332,5,-457v72,-178,211,-306,446,-306v315,0,465,213,465,535v0,256,-116,420,-298,495v-114,47,-263,46,-375,0v-118,-48,-199,-140,-243,-267xm970,-1600r-420,430r-160,0r350,-430r230,0","w":1140},"\u00f2":{"d":"860,-505v0,-214,-85,-375,-290,-375v-201,0,-290,164,-290,375v0,212,86,370,290,370v200,0,290,-160,290,-370xm129,-277v-45,-130,-46,-332,5,-457v72,-178,211,-306,446,-306v315,0,465,213,465,535v0,256,-116,420,-298,495v-114,47,-263,46,-375,0v-118,-48,-199,-140,-243,-267xm410,-1600r350,430r-160,0r-420,-430r230,0","w":1140},"\u00f4":{"d":"860,-505v0,-214,-85,-375,-290,-375v-201,0,-290,164,-290,375v0,212,86,370,290,370v200,0,290,-160,290,-370xm129,-277v-45,-130,-46,-332,5,-457v72,-178,211,-306,446,-306v315,0,465,213,465,535v0,256,-116,420,-298,495v-114,47,-263,46,-375,0v-118,-48,-199,-140,-243,-267xm145,-1170r340,-430r170,0r340,430r-150,0r-275,-280r-275,280r-150,0","w":1140},"\u00f6":{"d":"860,-505v0,-214,-85,-375,-290,-375v-201,0,-290,164,-290,375v0,212,86,370,290,370v200,0,290,-160,290,-370xm129,-277v-45,-130,-46,-332,5,-457v72,-178,211,-306,446,-306v315,0,465,213,465,535v0,256,-116,420,-298,495v-114,47,-263,46,-375,0v-118,-48,-199,-140,-243,-267xm360,-1210v-80,0,-127,-55,-127,-135v0,-80,47,-135,127,-135v80,0,128,55,128,135v0,80,-48,135,-128,135xm780,-1210v-80,0,-127,-55,-127,-135v0,-80,47,-135,127,-135v80,0,128,55,128,135v0,80,-48,135,-128,135","w":1140},"\u00f5":{"d":"860,-505v0,-214,-85,-375,-290,-375v-201,0,-290,164,-290,375v0,212,86,370,290,370v200,0,290,-160,290,-370xm129,-277v-45,-130,-46,-332,5,-457v72,-178,211,-306,446,-306v315,0,465,213,465,535v0,256,-116,420,-298,495v-114,47,-263,46,-375,0v-118,-48,-199,-140,-243,-267xm405,-1290v-51,-3,-80,38,-85,85r-105,0v2,-104,42,-192,112,-228v148,-77,256,70,408,78v48,3,79,-42,85,-85r105,0v-6,137,-64,250,-198,250v-125,0,-209,-94,-322,-100","w":1140},"\u00fa":{"d":"865,-200v-102,121,-206,225,-390,225v-213,0,-320,-143,-320,-430v0,-211,11,-433,-20,-615r205,0r0,555v3,169,9,325,170,325v125,0,208,-103,272,-184v26,-32,45,-65,58,-96v-3,-206,10,-422,-20,-600r205,0v9,350,-34,765,65,1020r-170,0v-23,-58,-44,-128,-55,-200xm989,-1600r-420,430r-160,0r350,-430r230,0","w":1185},"\u00f9":{"d":"865,-200v-102,121,-206,225,-390,225v-213,0,-320,-143,-320,-430v0,-211,11,-433,-20,-615r205,0r0,555v3,169,9,325,170,325v125,0,208,-103,272,-184v26,-32,45,-65,58,-96v-3,-206,10,-422,-20,-600r205,0v9,350,-34,765,65,1020r-170,0v-23,-58,-44,-128,-55,-200xm429,-1600r350,430r-160,0r-420,-430r230,0","w":1185},"\u00fb":{"d":"865,-200v-102,121,-206,225,-390,225v-213,0,-320,-143,-320,-430v0,-211,11,-433,-20,-615r205,0r0,555v3,169,9,325,170,325v125,0,208,-103,272,-184v26,-32,45,-65,58,-96v-3,-206,10,-422,-20,-600r205,0v9,350,-34,765,65,1020r-170,0v-23,-58,-44,-128,-55,-200xm164,-1170r340,-430r170,0r340,430r-150,0r-275,-280r-275,280r-150,0","w":1185},"\u00fc":{"d":"865,-200v-102,121,-206,225,-390,225v-213,0,-320,-143,-320,-430v0,-211,11,-433,-20,-615r205,0r0,555v3,169,9,325,170,325v125,0,208,-103,272,-184v26,-32,45,-65,58,-96v-3,-206,10,-422,-20,-600r205,0v9,350,-34,765,65,1020r-170,0v-23,-58,-44,-128,-55,-200xm379,-1210v-80,0,-127,-55,-127,-135v0,-80,47,-135,127,-135v80,0,128,55,128,135v0,80,-48,135,-128,135xm799,-1210v-80,0,-127,-55,-127,-135v0,-80,47,-135,127,-135v80,0,128,55,128,135v0,80,-48,135,-128,135","w":1185},"\u2020":{"d":"995,-904r-405,-11r2,561v1,89,3,182,6,280v3,98,7,200,12,309r-195,0v5,-109,10,-211,11,-309r8,-532r1,-309r-405,11r0,-165r404,9v-1,-75,-4,-151,-6,-229v-2,-78,-6,-152,-13,-221r195,0v-14,137,-17,302,-19,450r283,-4v35,-1,76,-3,121,-5r0,165","w":1025},"\u00b0":{"d":"418,-1004v-222,83,-407,-114,-328,-329v41,-111,185,-187,328,-133v111,42,189,189,132,330v-25,61,-70,109,-132,132xm320,-1100v81,0,135,-54,135,-135v0,-81,-54,-135,-135,-135v-81,0,-135,54,-135,135v0,81,54,135,135,135","w":640},"\u00a2":{"d":"605,-894v-172,44,-257,250,-204,465v27,108,97,184,204,213r0,-678xm994,-155v-76,56,-145,91,-259,102r0,263r-130,0r0,-263v-247,-39,-400,-205,-400,-487v0,-215,96,-363,233,-450v49,-31,105,-53,167,-64r0,-266r130,0r0,259v106,6,182,37,249,80r-33,171v-64,-46,-127,-80,-216,-92r0,693v102,-13,174,-55,240,-112"},"\u00a3":{"d":"294,-392v2,-99,-8,-202,-15,-298r-124,0r0,-145r113,0r-8,-200v0,-296,154,-478,458,-445v70,8,137,32,185,65r-46,150v-50,-34,-122,-57,-202,-60v-240,-9,-220,262,-199,490r309,0r0,145r-297,0v3,41,6,81,8,119v12,178,-6,319,-100,406r465,-3v37,-1,71,-2,100,-4v29,-2,54,-5,74,-8r0,180r-870,0r0,-130v75,-59,147,-133,149,-262"},"\u00a7":{"d":"522,-311v116,-10,210,-98,168,-225v-30,-91,-109,-140,-189,-199v-128,1,-227,89,-181,221v33,95,116,143,202,203xm505,-1325v-136,-5,-249,96,-174,210v131,199,441,264,531,500v68,179,-41,362,-172,420v107,90,190,175,190,335v0,162,-108,259,-234,304v-187,67,-422,0,-536,-89r50,-180v84,70,194,131,340,135v137,4,250,-106,179,-234v-122,-220,-442,-274,-531,-528v-12,-36,-18,-75,-18,-119v0,-146,84,-238,190,-285v-129,-95,-232,-214,-170,-410v53,-163,236,-245,466,-212v86,12,157,40,219,73r-35,175v-79,-46,-171,-90,-295,-95","w":1024},"\u2022":{"d":"384,-530v-96,-39,-166,-159,-116,-288v36,-96,161,-165,286,-116v96,38,168,160,118,286v-38,95,-163,170,-288,118","w":940},"\u00b6":{"d":"850,-1345r0,1345r-135,0r0,-1345r-160,0r0,1345r-135,0r0,-765v-180,-8,-302,-88,-352,-229v-39,-111,-7,-264,48,-328v71,-83,177,-138,324,-138r525,0r0,115r-115,0","w":1025},"\u00df":{"d":"130,0v52,-327,24,-747,30,-1120v5,-313,159,-500,459,-500v212,0,364,75,435,212v61,117,15,279,-54,341v-65,58,-158,88,-214,151v-29,32,-31,100,-6,137v58,84,171,111,251,175v78,62,152,139,152,276v0,233,-156,353,-390,353v-103,0,-198,-31,-262,-73r50,-180v50,47,119,93,212,93v125,0,214,-59,214,-184v0,-157,-160,-186,-263,-257v-84,-58,-162,-131,-162,-269v0,-207,207,-216,294,-337v31,-42,32,-115,2,-161v-43,-66,-121,-117,-223,-117v-188,0,-310,103,-310,300r0,1160r-215,0","w":1238},"\u00ae":{"d":"790,-1076r-115,4r0,305v161,6,327,1,325,-148v-2,-114,-79,-163,-210,-161xm1125,-925v0,144,-93,212,-205,245r266,354v14,18,23,30,29,36r-155,0r-261,-378r-124,0r1,277v1,42,4,76,9,101r-140,0v18,-223,7,-526,7,-772v0,-47,-3,-83,-7,-108r147,-8v232,-14,433,31,433,253xm1072,-1324v-138,-56,-296,-56,-434,0v-218,89,-363,285,-363,594v0,309,144,504,363,594v138,57,296,56,434,0v220,-89,368,-285,368,-594v0,-309,-148,-504,-368,-594xm254,-1148v136,-236,412,-399,774,-316v263,60,435,243,508,504v62,222,11,508,-78,652v-139,225,-420,397,-780,312v-329,-78,-523,-325,-528,-734v-2,-170,41,-309,104,-418","w":1615},"\u00a9":{"d":"644,-415v131,74,292,-5,366,-90r25,130v-90,91,-297,141,-447,73v-145,-67,-233,-209,-233,-418v0,-225,102,-376,259,-444v148,-64,317,-23,416,59r-40,120v-80,-82,-204,-129,-335,-77v-142,56,-213,266,-155,456v25,83,75,151,144,191xm154,-1148v136,-236,412,-399,774,-316v263,60,435,243,508,504v62,222,11,508,-78,652v-139,225,-420,397,-780,312v-329,-78,-523,-325,-528,-734v-2,-170,41,-309,104,-418xm972,-1324v-138,-56,-296,-56,-434,0v-218,89,-363,285,-363,594v0,309,144,504,363,594v138,57,296,56,434,0v220,-89,368,-285,368,-594v0,-309,-148,-504,-368,-594","w":1515},"\u2122":{"d":"324,-1367v-91,2,-188,-7,-264,12r0,-105r635,0r0,105v-75,-19,-172,-10,-264,-12r2,615v1,42,4,73,9,95r-129,0v23,-206,6,-480,11,-710xm1373,-1460r124,0r31,738v2,30,5,52,7,65r-104,0r-16,-650r-224,650r-109,0r-226,-651r-16,651r-105,0v10,-87,13,-200,18,-301r20,-502r127,0r236,690","w":1665},"\u00b4":{"d":"-170,-1600r-420,430r-160,0r350,-430r230,0","w":0},"\u00a8":{"d":"127,-1210v-80,0,-127,-55,-127,-135v0,-80,47,-135,127,-135v80,0,128,55,128,135v0,80,-48,135,-128,135xm547,-1210v-80,0,-127,-55,-127,-135v0,-80,47,-135,127,-135v80,0,128,55,128,135v0,80,-48,135,-128,135","w":675},"\u2260":{"d":"1005,-1215r-154,235r224,0r0,150r-323,0r-131,200r454,0r0,150r-552,0r-183,280r-160,0r183,-280r-238,0r0,-150r337,0r131,-200r-468,0r0,-150r566,0r154,-235r160,0"},"\u00c6":{"d":"905,0v16,-116,11,-241,14,-385r-449,0r-190,385r-200,0r62,-104r103,-194r565,-1162r845,0r0,165r-545,0r0,450r470,0r0,160r-470,0r0,520r414,-2v67,-1,121,-6,161,-13r0,180r-780,0xm547,-540r372,0r1,-755","w":1805},"\u00d8":{"d":"322,-980v-65,222,-25,534,83,666r508,-944v-103,-65,-255,-69,-367,-12v-110,56,-185,158,-224,290xm1113,-477v44,-142,41,-361,-3,-501v-23,-76,-55,-140,-97,-192r-513,953v103,77,267,90,390,29v110,-55,182,-157,223,-289xm570,-1462v147,-47,319,-18,428,46r62,-114r146,0r-101,189v143,132,235,326,235,601v0,355,-157,598,-397,713v-173,83,-372,65,-529,-30r-71,132r-148,0r115,-213v-129,-127,-217,-323,-215,-582v3,-325,130,-543,327,-673v47,-31,96,-53,148,-69","w":1460},"\u221e":{"d":"600,-845v91,-98,236,-199,400,-133v116,46,204,208,138,357v-39,89,-122,156,-243,156v-139,0,-225,-61,-295,-140v-74,81,-167,140,-295,140v-126,0,-210,-72,-245,-165v-71,-191,51,-370,245,-370v129,0,222,69,295,155xm1020,-730v0,-94,-87,-159,-186,-126v-67,23,-126,70,-164,126v51,70,110,140,215,140v83,0,135,-56,135,-140xm180,-730v0,94,87,159,186,126v68,-23,126,-70,164,-126v-51,-69,-109,-140,-215,-140v-83,0,-135,56,-135,140"},"\u00b1":{"d":"155,-350r890,0r0,150r-890,0r0,-150xm155,-985r370,0r0,-380r150,0r0,380r370,0r0,150r-370,0r0,365r-150,0r0,-365r-370,0r0,-150"},"\u2264":{"d":"1080,-245r-980,-400r0,-170r980,-400r0,180r-790,305r790,305r0,180xm100,-150r980,0r0,150r-980,0r0,-150"},"\u2265":{"d":"120,-150r980,0r0,150r-980,0r0,-150xm120,-1215r980,400r0,170r-980,400r0,-180r790,-305r-790,-305r0,-180"},"\u00a5":{"d":"200,-715r245,0r-257,-478r-57,-93v-20,-32,-42,-66,-67,-101r201,0r343,628r326,-628r201,0r-123,201r-254,471r250,0r0,145r-326,0r0,105r326,0r0,145r-326,0v0,72,0,135,2,190v2,55,6,99,11,130r-191,0v13,-87,11,-205,13,-320r-317,0r0,-145r317,0r0,-105r-317,0r0,-145"},"\u00b5":{"d":"1025,-1020v9,350,-34,765,65,1020r-170,0v-23,-58,-44,-128,-55,-200v-71,101,-161,225,-320,225v-98,0,-162,-48,-205,-105v2,197,-9,408,25,570r-210,0r0,-1190v1,-120,-3,-217,-20,-320r205,0r0,555v3,179,62,311,224,325v109,-14,177,-106,229,-184v22,-32,36,-65,47,-96v-3,-206,10,-422,-20,-600r205,0","w":1185},"\u2202":{"d":"825,-630v-77,-80,-260,-156,-399,-86v-122,61,-207,229,-157,406v26,93,85,180,201,180v183,0,258,-149,310,-299v21,-61,35,-128,45,-201xm500,-1455v446,-6,575,376,510,822v-40,279,-146,517,-362,623v-98,47,-239,44,-336,-2v-170,-82,-275,-318,-207,-559v44,-158,159,-261,315,-307v31,-9,59,-12,85,-12v150,3,250,39,340,120v26,-287,-58,-530,-340,-530v-100,0,-161,33,-230,70r-45,-150v70,-41,160,-74,270,-75","w":1110},"\u2211":{"d":"1075,-1275v-211,-35,-489,-15,-735,-20r370,544r-430,586r548,-1r229,-10v32,-3,58,-6,78,-9r0,185r-1060,0r0,-130r426,-620r-396,-580r0,-130r970,0r0,185","w":1230},"\u220f":{"d":"280,-1295v-99,0,-176,6,-260,20r0,-185r1515,0r0,185v-84,-15,-164,-20,-265,-20r2,1125v1,74,6,130,13,170r-205,0r0,-1295r-610,0r0,1295r-205,0v18,-115,15,-273,15,-430r0,-865","w":1565},"\u03c0":{"d":"895,0v-52,-132,-45,-330,-45,-514r0,-361r-400,0r0,875r-185,0r0,-875r-205,0r0,-145r1180,0r0,145r-205,0r0,475v-1,162,10,287,55,400r-195,0","w":1317},"\u222b":{"d":"860,-1390v-23,-39,-107,-77,-159,-40v-107,77,-105,249,-114,428r-43,880v-4,65,-8,122,-13,171v-13,169,-64,273,-151,355v-62,59,-185,86,-280,48v-28,-12,-54,-28,-75,-47r80,-150v30,49,141,64,181,11v101,-133,87,-401,97,-632r28,-660v4,-64,9,-119,13,-168v13,-160,61,-256,139,-342v64,-71,189,-109,305,-66v35,12,66,32,92,57","w":985},"\u00aa":{"d":"45,-740r632,0r0,100r-632,0r0,-100xm490,-1350v-29,-12,-83,-27,-130,-25v-124,6,-185,112,-185,250v0,98,25,176,110,185v104,-16,163,-103,205,-185r0,-225xm230,-1436v97,-64,271,-35,370,6v1,203,-13,442,45,580r-105,0v-14,-39,-28,-88,-35,-135v-57,68,-116,150,-230,150v-139,0,-208,-110,-210,-260v-2,-164,71,-279,165,-341","w":697},"\u00ba":{"d":"340,-1380v-120,0,-175,97,-175,225v0,128,52,225,175,225v120,0,175,-97,175,-225v0,-128,-52,-225,-175,-225xm335,-835v-188,0,-280,-127,-280,-320v0,-195,103,-320,290,-320v189,0,280,126,280,320v0,194,-103,320,-290,320xm45,-740r590,0r0,100r-590,0r0,-100","w":680},"\u2126":{"d":"1480,-810v0,316,-162,497,-330,645r220,-4v32,-1,62,-3,88,-5v26,-2,45,-3,60,-6r0,180r-535,0r0,-165v145,-146,302,-323,302,-610v0,-260,-108,-428,-295,-501v-115,-45,-267,-47,-380,2v-170,74,-280,234,-280,474v0,294,137,476,275,635r0,165r-535,0r0,-180v103,14,237,14,358,15v-148,-144,-293,-321,-293,-610v0,-346,170,-562,418,-663v158,-64,345,-63,506,-3v246,92,421,296,421,631","w":1588},"\u00e6":{"d":"1460,-625v-4,-157,-78,-265,-230,-265v-167,0,-264,104,-290,265r520,0xm770,-350v-9,-40,-15,-86,-15,-135r-199,9v-149,15,-272,45,-276,196v-4,147,204,170,319,108v67,-36,116,-96,165,-164v3,-4,5,-9,6,-14xm880,-865v80,-99,201,-175,365,-175v310,0,406,230,395,555r-710,0v10,213,116,341,330,345v155,3,266,-40,365,-100r20,165v-117,60,-237,102,-410,100v-200,-3,-326,-92,-405,-221v-98,115,-207,221,-410,221v-149,0,-250,-71,-300,-173v-56,-114,-6,-255,58,-326v111,-122,340,-149,577,-151r0,-85v-5,-135,-121,-170,-260,-170v-138,0,-206,67,-295,125r10,-195v26,-11,51,-21,74,-32v73,-33,149,-60,256,-58v163,2,276,70,340,175","w":1745},"\u00f8":{"d":"570,-880v-249,0,-327,263,-274,514v9,42,27,78,48,110r326,-606v-31,-12,-65,-18,-100,-18xm776,-234v106,-111,113,-436,0,-551r-334,620v67,37,169,42,241,5v35,-17,64,-44,93,-74xm251,-85v-98,-91,-157,-232,-156,-422v2,-257,116,-422,298,-498v108,-45,247,-47,358,-6r51,-94r146,0r-84,155v113,89,182,238,181,443v-2,256,-116,421,-298,497v-116,49,-279,44,-386,-4r-48,89r-148,0","w":1140},"\u00bf":{"d":"528,-1113v81,0,134,53,134,134v0,81,-53,134,-134,134v-81,0,-134,-53,-134,-134v0,-81,53,-134,134,-134xm538,235v105,0,186,-48,247,-114r45,179v-73,66,-184,109,-320,110v-238,2,-416,-124,-362,-372v42,-195,257,-260,278,-492v6,-71,9,-147,9,-236r175,0v1,243,-9,420,-125,540v-73,76,-140,124,-140,250v0,97,85,135,193,135","w":1050},"\u00a1":{"d":"361,-844v-81,0,-134,-53,-134,-134v0,-81,53,-134,134,-134v81,0,134,53,134,134v0,81,-53,134,-134,134xm443,-660r10,481v3,89,7,181,12,279v5,98,13,201,23,310r-255,0v9,-109,17,-212,22,-310v5,-98,9,-190,12,-279r11,-481r165,0","w":764},"\u00ac":{"d":"915,-340r0,-310r-805,0r0,-150r955,0r0,460r-150,0"},"\u221a":{"d":"1180,-1490r-475,1490r-85,0r-450,-800r-120,70r-50,-95r245,-140r405,715r435,-1350r240,0r0,110r-145,0"},"\u0192":{"d":"38,300v143,0,182,-122,182,-275r0,-875r-200,0r0,-145r200,0r0,-175v-3,-270,104,-450,345,-450v88,0,165,31,220,70r-46,150v-43,-32,-106,-60,-174,-60v-204,0,-153,264,-160,465r270,0r0,145r-270,0r-2,825v5,314,-109,525,-423,491v-63,-7,-126,-31,-170,-61r35,-165v47,32,117,60,193,60","w":730},"\u2248":{"d":"770,-924v147,35,243,-53,320,-141r0,165v-71,84,-200,153,-354,120v-129,-28,-224,-120,-366,-120v-115,0,-194,71,-260,150r0,-165v75,-107,276,-169,432,-97r157,64v25,10,49,18,71,24xm770,-554v147,35,243,-53,320,-141r0,165v-71,84,-200,153,-354,120v-129,-28,-224,-120,-366,-120v-115,0,-194,71,-260,150r0,-165v75,-107,276,-169,432,-97r157,64v25,10,49,18,71,24"},"\u2206":{"d":"655,-1095r-435,945r815,0xm0,0r685,-1485r605,1485r-1290,0","w":1288},"\u00ab":{"d":"1003,0r-438,-512r435,-508r185,0r-390,508r390,512r-182,0xm513,0r-438,-512r435,-508r185,0r-390,508r390,512r-182,0","w":1300},"\u00bb":{"d":"115,0r390,-512r-390,-508r185,0r435,508r-438,512r-182,0xm605,0r390,-512r-390,-508r185,0r435,508r-438,512r-182,0","w":1300},"\u2026":{"d":"1405,25v-81,0,-134,-53,-134,-134v0,-81,53,-134,134,-134v81,0,134,53,134,134v0,81,-53,134,-134,134xm862,25v-81,0,-134,-53,-134,-134v0,-81,53,-134,134,-134v81,0,134,53,134,134v0,81,-53,134,-134,134xm319,25v-81,0,-134,-53,-134,-134v0,-81,53,-134,134,-134v81,0,134,53,134,134v0,81,-53,134,-134,134","w":1724},"\u00a0":{"w":1024},"\u00c0":{"d":"433,-540r507,0r-255,-725xm994,-385r-615,0r-134,385r-205,0r94,-232r446,-1228r215,0r445,1228r95,232r-205,0xm527,-2030r350,430r-160,0r-420,-430r230,0","w":1395},"\u00c3":{"d":"433,-540r507,0r-255,-725xm994,-385r-615,0r-134,385r-205,0r94,-232r446,-1228r215,0r445,1228r95,232r-205,0xm522,-1720v-51,-3,-80,38,-85,85r-105,0v2,-104,42,-192,112,-228v148,-77,256,70,408,78v48,3,79,-42,85,-85r105,0v-6,137,-64,250,-198,250v-125,0,-209,-94,-322,-100","w":1395},"\u00d5":{"d":"1290,-1058v66,181,65,460,-4,640v-68,178,-183,316,-343,391v-147,69,-317,71,-465,3v-237,-109,-383,-347,-383,-696v0,-325,132,-540,327,-673v135,-92,364,-125,538,-43v155,73,267,205,330,378xm1113,-477v68,-223,20,-539,-85,-674v-70,-89,-164,-159,-308,-159v-225,0,-342,147,-398,330v-68,223,-19,536,86,670v71,90,165,160,312,160v222,0,337,-145,393,-327xm552,-1720v-51,-3,-80,38,-85,85r-105,0v2,-104,42,-192,112,-228v148,-77,256,70,408,78v48,3,79,-42,85,-85r105,0v-6,137,-64,250,-198,250v-125,0,-209,-94,-322,-100","w":1460},"\u0152":{"d":"969,-300v138,-182,137,-657,3,-851v-63,-91,-150,-159,-292,-159v-212,0,-314,151,-362,330v-60,221,-20,531,77,670v63,90,148,160,285,160v137,0,225,-65,289,-150xm690,-1485v181,0,289,86,373,189r-13,-164r750,0r0,165r-545,0r0,450r470,0r0,160r-470,0r0,520r414,-2v67,-1,121,-6,161,-13r0,180r-780,0v8,-43,11,-111,13,-165v-94,99,-209,190,-393,190v-292,0,-450,-192,-529,-427v-62,-181,-60,-460,3,-640v62,-177,168,-316,321,-391v72,-35,147,-52,225,-52","w":1950},"\u0153":{"d":"950,-172v-78,116,-212,197,-390,197v-314,0,-465,-210,-465,-532v0,-257,116,-423,298,-498v58,-24,121,-35,187,-35v177,1,303,76,376,191v78,-113,202,-191,384,-191v319,0,429,225,414,555r-709,0v9,212,108,345,320,345v154,0,268,-34,375,-100r20,165v-118,60,-245,102,-420,100v-188,-2,-310,-82,-390,-197xm860,-507v0,-214,-86,-373,-290,-373v-250,0,-336,283,-269,529v34,124,117,216,269,216v199,0,290,-162,290,-372xm1575,-625v-3,-165,-88,-265,-250,-265v-167,0,-247,104,-272,265r522,0","w":1860},"\u2013":{"d":"80,-705r895,0r0,150r-895,0r0,-150","w":1055},"\u2014":{"d":"80,-705r1575,0r0,150r-1575,0r0,-150","w":1735},"\u201c":{"d":"350,-1065v-168,0,-170,-218,-102,-347v31,-59,73,-118,132,-173r100,40v-62,69,-127,157,-135,280r140,0r0,100v-15,61,-65,100,-135,100xm780,-1065v-168,0,-170,-218,-102,-347v31,-59,73,-118,132,-173r100,40v-62,69,-127,157,-135,280r140,0r0,100v-15,61,-65,100,-135,100","w":1050},"\u201d":{"d":"770,-1585v168,0,170,218,102,347v-31,59,-73,118,-132,173r-100,-40v62,-69,127,-157,135,-280r-140,0r0,-100v15,-61,65,-100,135,-100xm340,-1585v168,0,170,218,102,347v-31,59,-73,118,-132,173r-100,-40v62,-69,127,-157,135,-280r-140,0r0,-100v15,-61,65,-100,135,-100","w":1010},"\u2018":{"d":"300,-1065v-168,0,-170,-218,-102,-347v31,-59,73,-118,132,-173r100,40v-62,69,-127,157,-135,280r140,0r0,100v-15,61,-65,100,-135,100","w":530},"\u2019":{"d":"300,-1585v168,0,170,218,102,347v-31,59,-73,118,-132,173r-100,-40v62,-69,127,-157,135,-280r-140,0r0,-100v15,-61,65,-100,135,-100","w":545},"\u00f7":{"d":"155,-800r890,0r0,150r-890,0r0,-150xm600,-906v-84,0,-142,-55,-142,-139v0,-83,58,-139,142,-139v82,0,137,56,137,139v0,83,-55,139,-137,139xm600,-267v-84,0,-142,-56,-142,-140v0,-83,58,-138,142,-138v82,0,137,55,137,138v0,83,-55,140,-137,140"},"\u25ca":{"d":"515,-1455r-325,630r325,680r320,-680xm575,0r-125,0r-415,-825r415,-775r125,0r420,775","w":1025},"\u00ff":{"d":"40,225v65,60,223,116,302,25v51,-59,89,-130,127,-224r-279,-691r-65,-153v-25,-57,-56,-124,-95,-202r200,0r323,817r287,-817r200,0r-118,282r-267,738v-58,160,-115,278,-203,378v-76,87,-223,115,-356,70v-40,-15,-79,-36,-116,-63xm325,-1210v-80,0,-127,-55,-127,-135v0,-80,47,-135,127,-135v80,0,128,55,128,135v0,80,-48,135,-128,135xm745,-1210v-80,0,-127,-55,-127,-135v0,-80,47,-135,127,-135v80,0,128,55,128,135v0,80,-48,135,-128,135","w":1060},"\u0178":{"d":"540,0v23,-161,12,-409,15,-611r-379,-645v-42,-69,-93,-138,-141,-204r230,0r395,661r375,-661r230,0r-78,114r-117,188r-325,555r2,429v1,76,6,134,13,174r-220,0xm440,-1640v-80,0,-127,-55,-127,-135v0,-80,47,-135,127,-135v80,0,128,55,128,135v0,80,-48,135,-128,135xm860,-1640v-80,0,-127,-55,-127,-135v0,-80,47,-135,127,-135v80,0,128,55,128,135v0,80,-48,135,-128,135","w":1320},"\u2044":{"d":"1190,-1600r-1029,1845r-151,0r1030,-1845r150,0"},"\u00a4":{"d":"604,-569v230,0,356,-206,278,-427v-38,-108,-135,-186,-278,-186v-147,0,-240,77,-286,184v-31,73,-32,173,0,246v46,106,140,183,286,183xm950,-1137v47,65,87,155,87,260v0,95,-28,180,-85,255r211,211r-94,93r-211,-211v-67,53,-145,92,-254,92v-115,0,-193,-37,-262,-92r-211,211r-94,-93r211,-211v-50,-68,-85,-143,-85,-252v0,-108,34,-198,89,-261r-215,-215r94,-94r215,215v66,-49,151,-85,258,-85v105,0,184,38,248,87r217,-217r94,94"},"\u2039":{"d":"513,0r-438,-512r435,-508r165,0r-370,508r370,512r-162,0","w":790},"\u203a":{"d":"75,0r370,-512r-370,-508r165,0r435,508r-438,512r-162,0","w":790},"\ufb01":{"d":"932,-1210v-80,0,-127,-55,-127,-135v0,-80,47,-135,127,-135v80,0,128,55,128,135v0,80,-48,135,-128,135xm405,-850v3,288,-13,604,30,850r-215,0r0,-850r-200,0r0,-145r200,0r0,-175v-3,-270,104,-450,345,-450v88,0,165,31,220,70r-46,150v-43,-32,-106,-60,-174,-60v-204,0,-153,264,-160,465r620,0r1,633r10,261v2,41,6,74,9,101r-205,0r0,-850r-435,0","w":1215},"\ufb02":{"d":"405,-850v3,288,-13,604,30,850r-215,0r0,-850r-200,0r0,-145r200,0r0,-145v3,-288,119,-480,395,-480v89,0,165,22,226,53r184,0r1,1205r10,260v2,41,6,75,9,102r-205,0r0,-1391v-62,-46,-128,-69,-225,-69v-154,0,-210,121,-210,288r0,177r220,0r0,145r-220,0","w":1215},"\u2021":{"d":"433,-180r-403,11r0,-165r405,9r0,-590r-405,11r0,-165r404,9v-1,-77,-3,-154,-6,-232v-3,-78,-7,-151,-13,-218r195,0v-14,135,-16,302,-19,450r283,-4v35,-1,76,-3,121,-5r0,165r-405,-11r0,590r284,-4v35,-1,76,-3,121,-5r0,165r-404,-11v1,72,3,144,6,216v3,72,7,138,13,199r-195,0v5,-61,9,-127,12,-199v3,-72,5,-144,6,-216","w":1024},"\u00b7":{"d":"339,-575v-81,0,-134,-53,-134,-134v0,-81,53,-134,134,-134v81,0,134,53,134,134v0,81,-53,134,-134,134","w":679},"\u201a":{"d":"400,-250v168,0,170,218,102,347v-31,59,-73,118,-132,173r-100,-40v62,-69,127,-157,135,-280r-140,0r0,-100v15,-61,65,-100,135,-100","w":760},"\u201e":{"d":"780,-250v168,0,170,218,102,347v-31,59,-73,118,-132,173r-100,-40v62,-69,127,-157,135,-280r-140,0r0,-100v15,-61,65,-100,135,-100xm350,-250v168,0,170,218,102,347v-31,59,-73,118,-132,173r-100,-40v62,-69,127,-157,135,-280r-140,0r0,-100v15,-61,65,-100,135,-100","w":990},"\u2030":{"d":"1810,-770v218,0,291,164,291,391v0,237,-74,404,-300,404v-221,0,-290,-163,-290,-393v0,-234,77,-402,299,-402xm1805,-115v120,0,131,-122,131,-251v0,-136,-3,-264,-131,-264v-121,0,-129,120,-129,249v0,136,3,266,129,266xm399,-1480v218,0,291,164,291,391v0,237,-74,404,-300,404v-221,0,-290,-163,-290,-393v0,-234,77,-402,299,-402xm394,-825v120,0,131,-122,131,-251v0,-136,-3,-264,-131,-264v-121,0,-129,120,-129,249v0,136,3,266,129,266xm1239,-1480r-780,1505r-168,0r782,-1505r166,0xm1135,-770v218,0,291,164,291,391v0,237,-74,404,-300,404v-221,0,-290,-163,-290,-393v0,-234,77,-402,299,-402xm1130,-115v120,0,131,-122,131,-251v0,-136,-3,-264,-131,-264v-121,0,-129,120,-129,249v0,136,3,266,129,266","w":2201},"\u00c2":{"d":"433,-540r507,0r-255,-725xm994,-385r-615,0r-134,385r-205,0r94,-232r446,-1228r215,0r445,1228r95,232r-205,0xm262,-1600r340,-430r170,0r340,430r-150,0r-275,-280r-275,280r-150,0","w":1395},"\u00ca":{"d":"160,0v31,-291,15,-694,15,-1025v0,-99,-1,-185,-2,-261v-1,-76,-6,-134,-13,-174r850,0r0,165r-645,0r0,450r570,0r0,160r-570,0r0,520r514,-2v67,-1,121,-6,161,-13r0,180r-880,0xm175,-1600r340,-430r170,0r340,430r-150,0r-275,-280r-275,280r-150,0","w":1160},"\u00c1":{"d":"433,-540r507,0r-255,-725xm994,-385r-615,0r-134,385r-205,0r94,-232r446,-1228r215,0r445,1228r95,232r-205,0xm1087,-2030r-420,430r-160,0r350,-430r230,0","w":1395},"\u00cb":{"d":"160,0v31,-291,15,-694,15,-1025v0,-99,-1,-185,-2,-261v-1,-76,-6,-134,-13,-174r850,0r0,165r-645,0r0,450r570,0r0,160r-570,0r0,520r514,-2v67,-1,121,-6,161,-13r0,180r-880,0xm390,-1640v-80,0,-127,-55,-127,-135v0,-80,47,-135,127,-135v80,0,128,55,128,135v0,80,-48,135,-128,135xm810,-1640v-80,0,-127,-55,-127,-135v0,-80,47,-135,127,-135v80,0,128,55,128,135v0,80,-48,135,-128,135","w":1160},"\u00c8":{"d":"160,0v31,-291,15,-694,15,-1025v0,-99,-1,-185,-2,-261v-1,-76,-6,-134,-13,-174r850,0r0,165r-645,0r0,450r570,0r0,160r-570,0r0,520r514,-2v67,-1,121,-6,161,-13r0,180r-880,0xm440,-2030r350,430r-160,0r-420,-430r230,0","w":1160},"\u00cd":{"d":"815,-1460r0,145r-245,0r0,1170r245,0r0,145r-675,0r0,-145r240,0r0,-1170r-240,0r0,-145r675,0xm877,-2030r-420,430r-160,0r350,-430r230,0","w":975},"\u00ce":{"d":"815,-1460r0,145r-245,0r0,1170r245,0r0,145r-675,0r0,-145r240,0r0,-1170r-240,0r0,-145r675,0xm52,-1600r340,-430r170,0r340,430r-150,0r-275,-280r-275,280r-150,0","w":975},"\u00cf":{"d":"815,-1460r0,145r-245,0r0,1170r245,0r0,145r-675,0r0,-145r240,0r0,-1170r-240,0r0,-145r675,0xm267,-1640v-80,0,-127,-55,-127,-135v0,-80,47,-135,127,-135v80,0,128,55,128,135v0,80,-48,135,-128,135xm687,-1640v-80,0,-127,-55,-127,-135v0,-80,47,-135,127,-135v80,0,128,55,128,135v0,80,-48,135,-128,135","w":975},"\u00cc":{"d":"815,-1460r0,145r-245,0r0,1170r245,0r0,145r-675,0r0,-145r240,0r0,-1170r-240,0r0,-145r675,0xm317,-2030r350,430r-160,0r-420,-430r230,0","w":975},"\u00d3":{"d":"1290,-1058v66,181,65,460,-4,640v-68,178,-183,316,-343,391v-147,69,-317,71,-465,3v-237,-109,-383,-347,-383,-696v0,-325,132,-540,327,-673v135,-92,364,-125,538,-43v155,73,267,205,330,378xm1113,-477v68,-223,20,-539,-85,-674v-70,-89,-164,-159,-308,-159v-225,0,-342,147,-398,330v-68,223,-19,536,86,670v71,90,165,160,312,160v222,0,337,-145,393,-327xm1117,-2030r-420,430r-160,0r350,-430r230,0","w":1460},"\u00d4":{"d":"1290,-1058v66,181,65,460,-4,640v-68,178,-183,316,-343,391v-147,69,-317,71,-465,3v-237,-109,-383,-347,-383,-696v0,-325,132,-540,327,-673v135,-92,364,-125,538,-43v155,73,267,205,330,378xm1113,-477v68,-223,20,-539,-85,-674v-70,-89,-164,-159,-308,-159v-225,0,-342,147,-398,330v-68,223,-19,536,86,670v71,90,165,160,312,160v222,0,337,-145,393,-327xm292,-1600r340,-430r170,0r340,430r-150,0r-275,-280r-275,280r-150,0","w":1460},"\u25cc":{"d":"553,-821v-26,0,-47,-21,-47,-47v0,-26,21,-48,47,-48v26,0,48,22,48,48v0,26,-22,47,-48,47xm553,0v-26,0,-47,-21,-47,-47v0,-26,21,-48,47,-48v26,0,48,22,48,48v0,26,-22,47,-48,47xm663,-838v1,-28,21,-46,47,-47v26,-1,48,24,48,49v0,25,-24,47,-48,47v-25,0,-47,-25,-47,-49xm348,-78v1,-29,24,-46,49,-48v25,-1,47,24,47,48v0,25,-24,47,-48,47v-25,0,-48,-24,-48,-47xm796,-748v0,-25,23,-48,47,-48v26,0,47,22,47,48v0,26,-21,48,-47,48v-25,0,-47,-24,-47,-48xm215,-168v0,-23,24,-47,46,-47v27,0,49,21,49,47v0,25,-21,48,-47,48v-24,0,-48,-24,-48,-48xm885,-614v1,-28,18,-48,47,-49v24,-1,48,23,48,48v0,24,-23,48,-49,48v-24,0,-47,-22,-46,-47xm126,-302v1,-28,20,-45,48,-46v26,-1,48,20,48,46v0,25,-22,49,-48,49v-25,0,-49,-24,-48,-49xm964,-411v-42,0,-64,-50,-34,-79v30,-29,81,-10,81,32v0,25,-21,47,-47,47xm95,-458v-1,-26,21,-47,47,-47v24,0,49,21,49,46v0,25,-24,49,-48,49v-27,0,-48,-23,-48,-48xm933,-348v28,1,46,21,47,47v1,26,-23,47,-48,47v-28,0,-47,-22,-48,-47v-1,-29,24,-47,49,-47xm173,-663v29,1,47,23,49,50v1,25,-25,46,-49,46v-26,0,-47,-24,-47,-48v0,-25,23,-49,47,-48xm841,-215v26,0,50,20,50,47v0,25,-21,47,-48,47v-26,0,-48,-22,-48,-47v0,-26,20,-47,46,-47xm262,-796v25,0,48,22,48,47v0,29,-19,48,-47,48v-26,0,-48,-21,-48,-46v0,-25,22,-50,47,-49xm707,-127v27,2,49,19,51,48v1,24,-23,48,-48,48v-24,0,-48,-23,-48,-49v0,-22,21,-48,45,-47xm397,-885v28,1,45,20,46,48v1,25,-19,48,-45,48v-26,0,-50,-21,-50,-48v0,-24,24,-49,49,-48","w":1106},"\u00d2":{"d":"1290,-1058v66,181,65,460,-4,640v-68,178,-183,316,-343,391v-147,69,-317,71,-465,3v-237,-109,-383,-347,-383,-696v0,-325,132,-540,327,-673v135,-92,364,-125,538,-43v155,73,267,205,330,378xm1113,-477v68,-223,20,-539,-85,-674v-70,-89,-164,-159,-308,-159v-225,0,-342,147,-398,330v-68,223,-19,536,86,670v71,90,165,160,312,160v222,0,337,-145,393,-327xm557,-2030r350,430r-160,0r-420,-430r230,0","w":1460},"\u00da":{"d":"710,-135v258,0,340,-168,340,-425r0,-900r205,0v-28,265,-11,640,-15,945v-5,347,-179,540,-530,540v-353,0,-534,-192,-535,-540r-3,-771v-2,-76,-5,-134,-12,-174r205,0r0,900v-1,259,84,425,345,425xm1107,-2030r-420,430r-160,0r350,-430r230,0","w":1440},"\u00db":{"d":"710,-135v258,0,340,-168,340,-425r0,-900r205,0v-28,265,-11,640,-15,945v-5,347,-179,540,-530,540v-353,0,-534,-192,-535,-540r-3,-771v-2,-76,-5,-134,-12,-174r205,0r0,900v-1,259,84,425,345,425xm282,-1600r340,-430r170,0r340,430r-150,0r-275,-280r-275,280r-150,0","w":1440},"\u00d9":{"d":"710,-135v258,0,340,-168,340,-425r0,-900r205,0v-28,265,-11,640,-15,945v-5,347,-179,540,-530,540v-353,0,-534,-192,-535,-540r-3,-771v-2,-76,-5,-134,-12,-174r205,0r0,900v-1,259,84,425,345,425xm547,-2030r350,430r-160,0r-420,-430r230,0","w":1440},"\u0131":{"d":"355,-1020r1,658r10,261v2,41,6,74,9,101r-205,0r-2,-808v-1,-42,-3,-82,-5,-118v-2,-36,-5,-68,-8,-94r200,0","w":530},"\u02c6":{"d":"10,-1170r340,-430r170,0r340,430r-150,0r-275,-280r-275,280r-150,0","w":870},"\u02dc":{"d":"190,-1290v-51,-3,-80,38,-85,85r-105,0v2,-104,42,-192,112,-228v148,-77,256,70,408,78v48,3,79,-42,85,-85r105,0v-6,137,-64,250,-198,250v-125,0,-209,-94,-322,-100","w":710},"\u00af":{"d":"0,-1390r710,0r0,150r-710,0r0,-150","w":710},"\u02d8":{"d":"750,-1550v-5,177,-94,301,-218,365v-90,46,-225,47,-314,0v-125,-64,-212,-187,-218,-365r120,0v15,109,74,195,162,230v182,73,320,-64,346,-230r122,0","w":750},"\u02d9":{"d":"135,-1210v-81,0,-135,-54,-135,-135v0,-81,54,-135,135,-135v81,0,135,54,135,135v0,81,-54,135,-135,135","w":270},"\u02da":{"d":"299,-1186v-190,70,-351,-99,-283,-283v34,-95,160,-162,283,-115v94,36,164,161,115,283v-21,52,-62,96,-115,115xm215,-1285v59,0,100,-41,100,-100v0,-59,-41,-100,-100,-100v-59,0,-100,41,-100,100v0,59,41,100,100,100","w":430},"\u00b8":{"d":"148,180v-32,0,-68,13,-88,25r0,-207r125,0r0,97v157,-40,253,123,182,257v-40,75,-123,126,-232,128v-56,1,-96,-20,-135,-40r10,-100v70,54,236,37,235,-70v0,-51,-44,-90,-97,-90","w":390},"\u02dd":{"d":"450,-1600r-310,450r-140,0r240,-450r210,0xm790,-1600r-310,450r-140,0r240,-450r210,0","w":790},"\u02db":{"d":"0,225v0,-121,70,-182,160,-227r140,0v-80,54,-154,97,-160,197v-4,75,46,123,120,120v66,-3,120,-36,155,-75r30,100v-63,68,-179,116,-294,75v-80,-29,-151,-87,-151,-190","w":445},"\u02c7":{"d":"150,-1600r275,280r275,-280r150,0r-340,430r-170,0r-340,-430r150,0","w":850},"\u0251":{"d":"815,-830v-89,-37,-254,-56,-349,-7v-165,85,-232,426,-120,617v40,69,131,97,216,49v108,-62,199,-167,253,-284r0,-375xm380,-976v162,-105,456,-57,620,11v2,338,-21,736,75,965r-175,0v-26,-68,-52,-139,-65,-220v-95,112,-190,245,-380,245v-168,0,-269,-108,-319,-243v-67,-180,-16,-445,64,-567v51,-78,105,-143,180,-191","w":1150},"\u00e1":{"d":"815,-830v-89,-37,-254,-56,-349,-7v-165,85,-232,426,-120,617v40,69,131,97,216,49v108,-62,199,-167,253,-284r0,-375xm380,-976v162,-105,456,-57,620,11v2,338,-21,736,75,965r-175,0v-26,-68,-52,-139,-65,-220v-95,112,-190,245,-380,245v-168,0,-269,-108,-319,-243v-67,-180,-16,-445,64,-567v51,-78,105,-143,180,-191xm1015,-1600r-420,430r-160,0r350,-430r230,0","w":1150},"\u00e0":{"d":"815,-830v-89,-37,-254,-56,-349,-7v-165,85,-232,426,-120,617v40,69,131,97,216,49v108,-62,199,-167,253,-284r0,-375xm380,-976v162,-105,456,-57,620,11v2,338,-21,736,75,965r-175,0v-26,-68,-52,-139,-65,-220v-95,112,-190,245,-380,245v-168,0,-269,-108,-319,-243v-67,-180,-16,-445,64,-567v51,-78,105,-143,180,-191xm455,-1600r350,430r-160,0r-420,-430r230,0","w":1150},"\u00e2":{"d":"815,-830v-89,-37,-254,-56,-349,-7v-165,85,-232,426,-120,617v40,69,131,97,216,49v108,-62,199,-167,253,-284r0,-375xm380,-976v162,-105,456,-57,620,11v2,338,-21,736,75,965r-175,0v-26,-68,-52,-139,-65,-220v-95,112,-190,245,-380,245v-168,0,-269,-108,-319,-243v-67,-180,-16,-445,64,-567v51,-78,105,-143,180,-191xm190,-1170r340,-430r170,0r340,430r-150,0r-275,-280r-275,280r-150,0","w":1150},"\u1ead":{"d":"815,-830v-89,-37,-254,-56,-349,-7v-165,85,-232,426,-120,617v40,69,131,97,216,49v108,-62,199,-167,253,-284r0,-375xm380,-976v162,-105,456,-57,620,11v2,338,-21,736,75,965r-175,0v-26,-68,-52,-139,-65,-220v-95,112,-190,245,-380,245v-168,0,-269,-108,-319,-243v-67,-180,-16,-445,64,-567v51,-78,105,-143,180,-191xm615,479v-81,0,-135,-54,-135,-135v0,-81,54,-135,135,-135v81,0,135,54,135,135v0,81,-54,135,-135,135xm190,-1170r340,-430r170,0r340,430r-150,0r-275,-280r-275,280r-150,0","w":1150},"\u1ea5":{"d":"815,-830v-89,-37,-254,-56,-349,-7v-165,85,-232,426,-120,617v40,69,131,97,216,49v108,-62,199,-167,253,-284r0,-375xm380,-976v162,-105,456,-57,620,11v2,338,-21,736,75,965r-175,0v-26,-68,-52,-139,-65,-220v-95,112,-190,245,-380,245v-168,0,-269,-108,-319,-243v-67,-180,-16,-445,64,-567v51,-78,105,-143,180,-191xm190,-1170r340,-430r170,0r340,430r-150,0r-275,-280r-275,280r-150,0xm1015,-2135r-420,430r-160,0r350,-430r230,0","w":1150},"\u1ea7":{"d":"815,-830v-89,-37,-254,-56,-349,-7v-165,85,-232,426,-120,617v40,69,131,97,216,49v108,-62,199,-167,253,-284r0,-375xm380,-976v162,-105,456,-57,620,11v2,338,-21,736,75,965r-175,0v-26,-68,-52,-139,-65,-220v-95,112,-190,245,-380,245v-168,0,-269,-108,-319,-243v-67,-180,-16,-445,64,-567v51,-78,105,-143,180,-191xm190,-1170r340,-430r170,0r340,430r-150,0r-275,-280r-275,280r-150,0xm455,-2135r350,430r-160,0r-420,-430r230,0","w":1150},"\u1eab":{"d":"815,-830v-89,-37,-254,-56,-349,-7v-165,85,-232,426,-120,617v40,69,131,97,216,49v108,-62,199,-167,253,-284r0,-375xm380,-976v162,-105,456,-57,620,11v2,338,-21,736,75,965r-175,0v-26,-68,-52,-139,-65,-220v-95,112,-190,245,-380,245v-168,0,-269,-108,-319,-243v-67,-180,-16,-445,64,-567v51,-78,105,-143,180,-191xm190,-1170r340,-430r170,0r340,430r-150,0r-275,-280r-275,280r-150,0xm450,-1825v-51,-3,-80,38,-85,85r-105,0v2,-104,42,-192,112,-228v148,-77,256,70,408,78v48,3,79,-42,85,-85r105,0v-6,137,-64,250,-198,250v-125,0,-209,-94,-322,-100","w":1150},"\u1ea9":{"d":"815,-830v-89,-37,-254,-56,-349,-7v-165,85,-232,426,-120,617v40,69,131,97,216,49v108,-62,199,-167,253,-284r0,-375xm380,-976v162,-105,456,-57,620,11v2,338,-21,736,75,965r-175,0v-26,-68,-52,-139,-65,-220v-95,112,-190,245,-380,245v-168,0,-269,-108,-319,-243v-67,-180,-16,-445,64,-567v51,-78,105,-143,180,-191xm190,-1170r340,-430r170,0r340,430r-150,0r-275,-280r-275,280r-150,0xm598,-2190v120,4,225,56,225,170v0,127,-147,135,-159,259v-3,27,-6,60,-6,101r-120,0v0,-108,19,-183,73,-235v32,-32,87,-56,87,-110v0,-57,-48,-81,-115,-80v-66,0,-114,34,-150,70r-25,-105v42,-37,110,-73,190,-70","w":1150},"\u0103":{"d":"815,-830v-89,-37,-254,-56,-349,-7v-165,85,-232,426,-120,617v40,69,131,97,216,49v108,-62,199,-167,253,-284r0,-375xm380,-976v162,-105,456,-57,620,11v2,338,-21,736,75,965r-175,0v-26,-68,-52,-139,-65,-220v-95,112,-190,245,-380,245v-168,0,-269,-108,-319,-243v-67,-180,-16,-445,64,-567v51,-78,105,-143,180,-191xm990,-1550v-5,177,-95,301,-219,365v-90,46,-225,47,-314,0v-125,-64,-211,-187,-217,-365r120,0v15,109,75,195,163,230v182,73,319,-64,345,-230r122,0","w":1150},"\u1eb7":{"d":"815,-830v-89,-37,-254,-56,-349,-7v-165,85,-232,426,-120,617v40,69,131,97,216,49v108,-62,199,-167,253,-284r0,-375xm380,-976v162,-105,456,-57,620,11v2,338,-21,736,75,965r-175,0v-26,-68,-52,-139,-65,-220v-95,112,-190,245,-380,245v-168,0,-269,-108,-319,-243v-67,-180,-16,-445,64,-567v51,-78,105,-143,180,-191xm615,479v-81,0,-135,-54,-135,-135v0,-81,54,-135,135,-135v81,0,135,54,135,135v0,81,-54,135,-135,135xm990,-1550v-5,177,-95,301,-219,365v-90,46,-225,47,-314,0v-125,-64,-211,-187,-217,-365r120,0v15,109,75,195,163,230v182,73,319,-64,345,-230r122,0","w":1150},"\u1eaf":{"d":"815,-830v-89,-37,-254,-56,-349,-7v-165,85,-232,426,-120,617v40,69,131,97,216,49v108,-62,199,-167,253,-284r0,-375xm380,-976v162,-105,456,-57,620,11v2,338,-21,736,75,965r-175,0v-26,-68,-52,-139,-65,-220v-95,112,-190,245,-380,245v-168,0,-269,-108,-319,-243v-67,-180,-16,-445,64,-567v51,-78,105,-143,180,-191xm990,-1550v-5,177,-95,301,-219,365v-90,46,-225,47,-314,0v-125,-64,-211,-187,-217,-365r120,0v15,109,75,195,163,230v182,73,319,-64,345,-230r122,0xm1015,-2135r-420,430r-160,0r350,-430r230,0","w":1150},"\u1eb1":{"d":"815,-830v-89,-37,-254,-56,-349,-7v-165,85,-232,426,-120,617v40,69,131,97,216,49v108,-62,199,-167,253,-284r0,-375xm380,-976v162,-105,456,-57,620,11v2,338,-21,736,75,965r-175,0v-26,-68,-52,-139,-65,-220v-95,112,-190,245,-380,245v-168,0,-269,-108,-319,-243v-67,-180,-16,-445,64,-567v51,-78,105,-143,180,-191xm990,-1550v-5,177,-95,301,-219,365v-90,46,-225,47,-314,0v-125,-64,-211,-187,-217,-365r120,0v15,109,75,195,163,230v182,73,319,-64,345,-230r122,0xm455,-2135r350,430r-160,0r-420,-430r230,0","w":1150},"\u1eb5":{"d":"815,-830v-89,-37,-254,-56,-349,-7v-165,85,-232,426,-120,617v40,69,131,97,216,49v108,-62,199,-167,253,-284r0,-375xm380,-976v162,-105,456,-57,620,11v2,338,-21,736,75,965r-175,0v-26,-68,-52,-139,-65,-220v-95,112,-190,245,-380,245v-168,0,-269,-108,-319,-243v-67,-180,-16,-445,64,-567v51,-78,105,-143,180,-191xm990,-1550v-5,177,-95,301,-219,365v-90,46,-225,47,-314,0v-125,-64,-211,-187,-217,-365r120,0v15,109,75,195,163,230v182,73,319,-64,345,-230r122,0xm450,-1825v-51,-3,-80,38,-85,85r-105,0v2,-104,42,-192,112,-228v148,-77,256,70,408,78v48,3,79,-42,85,-85r105,0v-6,137,-64,250,-198,250v-125,0,-209,-94,-322,-100","w":1150},"\u1eb3":{"d":"815,-830v-89,-37,-254,-56,-349,-7v-165,85,-232,426,-120,617v40,69,131,97,216,49v108,-62,199,-167,253,-284r0,-375xm380,-976v162,-105,456,-57,620,11v2,338,-21,736,75,965r-175,0v-26,-68,-52,-139,-65,-220v-95,112,-190,245,-380,245v-168,0,-269,-108,-319,-243v-67,-180,-16,-445,64,-567v51,-78,105,-143,180,-191xm990,-1550v-5,177,-95,301,-219,365v-90,46,-225,47,-314,0v-125,-64,-211,-187,-217,-365r120,0v15,109,75,195,163,230v182,73,319,-64,345,-230r122,0xm598,-2190v120,4,225,56,225,170v0,127,-147,135,-159,259v-3,27,-6,60,-6,101r-120,0v0,-108,19,-183,73,-235v32,-32,87,-56,87,-110v0,-57,-48,-81,-115,-80v-66,0,-114,34,-150,70r-25,-105v42,-37,110,-73,190,-70","w":1150},"\u01ce":{"d":"815,-830v-89,-37,-254,-56,-349,-7v-165,85,-232,426,-120,617v40,69,131,97,216,49v108,-62,199,-167,253,-284r0,-375xm380,-976v162,-105,456,-57,620,11v2,338,-21,736,75,965r-175,0v-26,-68,-52,-139,-65,-220v-95,112,-190,245,-380,245v-168,0,-269,-108,-319,-243v-67,-180,-16,-445,64,-567v51,-78,105,-143,180,-191xm340,-1600r275,280r275,-280r150,0r-340,430r-170,0r-340,-430r150,0","w":1150},"\u00e3":{"d":"815,-830v-89,-37,-254,-56,-349,-7v-165,85,-232,426,-120,617v40,69,131,97,216,49v108,-62,199,-167,253,-284r0,-375xm380,-976v162,-105,456,-57,620,11v2,338,-21,736,75,965r-175,0v-26,-68,-52,-139,-65,-220v-95,112,-190,245,-380,245v-168,0,-269,-108,-319,-243v-67,-180,-16,-445,64,-567v51,-78,105,-143,180,-191xm450,-1290v-51,-3,-80,38,-85,85r-105,0v2,-104,42,-192,112,-228v148,-77,256,70,408,78v48,3,79,-42,85,-85r105,0v-6,137,-64,250,-198,250v-125,0,-209,-94,-322,-100","w":1150},"\u0101":{"d":"815,-830v-89,-37,-254,-56,-349,-7v-165,85,-232,426,-120,617v40,69,131,97,216,49v108,-62,199,-167,253,-284r0,-375xm380,-976v162,-105,456,-57,620,11v2,338,-21,736,75,965r-175,0v-26,-68,-52,-139,-65,-220v-95,112,-190,245,-380,245v-168,0,-269,-108,-319,-243v-67,-180,-16,-445,64,-567v51,-78,105,-143,180,-191xm240,-1390r750,0r0,150r-750,0r0,-150","w":1150},"\u00e4":{"d":"815,-830v-89,-37,-254,-56,-349,-7v-165,85,-232,426,-120,617v40,69,131,97,216,49v108,-62,199,-167,253,-284r0,-375xm380,-976v162,-105,456,-57,620,11v2,338,-21,736,75,965r-175,0v-26,-68,-52,-139,-65,-220v-95,112,-190,245,-380,245v-168,0,-269,-108,-319,-243v-67,-180,-16,-445,64,-567v51,-78,105,-143,180,-191xm405,-1210v-80,0,-127,-55,-127,-135v0,-80,47,-135,127,-135v80,0,128,55,128,135v0,80,-48,135,-128,135xm825,-1210v-80,0,-127,-55,-127,-135v0,-80,47,-135,127,-135v80,0,128,55,128,135v0,80,-48,135,-128,135","w":1150},"\u01df":{"d":"815,-830v-89,-37,-254,-56,-349,-7v-165,85,-232,426,-120,617v40,69,131,97,216,49v108,-62,199,-167,253,-284r0,-375xm380,-976v162,-105,456,-57,620,11v2,338,-21,736,75,965r-175,0v-26,-68,-52,-139,-65,-220v-95,112,-190,245,-380,245v-168,0,-269,-108,-319,-243v-67,-180,-16,-445,64,-567v51,-78,105,-143,180,-191xm405,-1210v-80,0,-127,-55,-127,-135v0,-80,47,-135,127,-135v80,0,128,55,128,135v0,80,-48,135,-128,135xm825,-1210v-80,0,-127,-55,-127,-135v0,-80,47,-135,127,-135v80,0,128,55,128,135v0,80,-48,135,-128,135xm240,-1795r750,0r0,150r-750,0r0,-150","w":1150},"\u0227":{"d":"815,-830v-89,-37,-254,-56,-349,-7v-165,85,-232,426,-120,617v40,69,131,97,216,49v108,-62,199,-167,253,-284r0,-375xm380,-976v162,-105,456,-57,620,11v2,338,-21,736,75,965r-175,0v-26,-68,-52,-139,-65,-220v-95,112,-190,245,-380,245v-168,0,-269,-108,-319,-243v-67,-180,-16,-445,64,-567v51,-78,105,-143,180,-191xm615,-1210v-81,0,-135,-54,-135,-135v0,-81,54,-135,135,-135v81,0,135,54,135,135v0,81,-54,135,-135,135","w":1150},"\u01e1":{"d":"815,-830v-89,-37,-254,-56,-349,-7v-165,85,-232,426,-120,617v40,69,131,97,216,49v108,-62,199,-167,253,-284r0,-375xm380,-976v162,-105,456,-57,620,11v2,338,-21,736,75,965r-175,0v-26,-68,-52,-139,-65,-220v-95,112,-190,245,-380,245v-168,0,-269,-108,-319,-243v-67,-180,-16,-445,64,-567v51,-78,105,-143,180,-191xm615,-1210v-81,0,-135,-54,-135,-135v0,-81,54,-135,135,-135v81,0,135,54,135,135v0,81,-54,135,-135,135xm240,-1795r750,0r0,150r-750,0r0,-150","w":1150},"\u00e5":{"d":"815,-830v-89,-37,-254,-56,-349,-7v-165,85,-232,426,-120,617v40,69,131,97,216,49v108,-62,199,-167,253,-284r0,-375xm380,-976v162,-105,456,-57,620,11v2,338,-21,736,75,965r-175,0v-26,-68,-52,-139,-65,-220v-95,112,-190,245,-380,245v-168,0,-269,-108,-319,-243v-67,-180,-16,-445,64,-567v51,-78,105,-143,180,-191xm699,-1186v-190,70,-351,-99,-283,-283v34,-95,160,-162,283,-115v94,36,164,161,115,283v-21,52,-62,96,-115,115xm615,-1285v59,0,100,-41,100,-100v0,-59,-41,-100,-100,-100v-59,0,-100,41,-100,100v0,59,41,100,100,100","w":1150},"\u01fb":{"d":"815,-830v-89,-37,-254,-56,-349,-7v-165,85,-232,426,-120,617v40,69,131,97,216,49v108,-62,199,-167,253,-284r0,-375xm380,-976v162,-105,456,-57,620,11v2,338,-21,736,75,965r-175,0v-26,-68,-52,-139,-65,-220v-95,112,-190,245,-380,245v-168,0,-269,-108,-319,-243v-67,-180,-16,-445,64,-567v51,-78,105,-143,180,-191xm699,-1186v-190,70,-351,-99,-283,-283v34,-95,160,-162,283,-115v94,36,164,161,115,283v-21,52,-62,96,-115,115xm615,-1285v59,0,100,-41,100,-100v0,-59,-41,-100,-100,-100v-59,0,-100,41,-100,100v0,59,41,100,100,100xm1015,-2135r-420,430r-160,0r350,-430r230,0","w":1150},"\u1ea3":{"d":"815,-830v-89,-37,-254,-56,-349,-7v-165,85,-232,426,-120,617v40,69,131,97,216,49v108,-62,199,-167,253,-284r0,-375xm380,-976v162,-105,456,-57,620,11v2,338,-21,736,75,965r-175,0v-26,-68,-52,-139,-65,-220v-95,112,-190,245,-380,245v-168,0,-269,-108,-319,-243v-67,-180,-16,-445,64,-567v51,-78,105,-143,180,-191xm598,-1655v120,4,225,56,225,170v0,127,-147,135,-159,259v-3,27,-6,60,-6,101r-120,0v0,-108,19,-183,73,-235v32,-32,87,-56,87,-110v0,-57,-48,-81,-115,-80v-66,0,-114,34,-150,70r-25,-105v42,-37,110,-73,190,-70","w":1150},"\u1ea1":{"d":"815,-830v-89,-37,-254,-56,-349,-7v-165,85,-232,426,-120,617v40,69,131,97,216,49v108,-62,199,-167,253,-284r0,-375xm380,-976v162,-105,456,-57,620,11v2,338,-21,736,75,965r-175,0v-26,-68,-52,-139,-65,-220v-95,112,-190,245,-380,245v-168,0,-269,-108,-319,-243v-67,-180,-16,-445,64,-567v51,-78,105,-143,180,-191xm615,479v-81,0,-135,-54,-135,-135v0,-81,54,-135,135,-135v81,0,135,54,135,135v0,81,-54,135,-135,135","w":1150},"\u01fd":{"d":"1460,-625v-4,-157,-78,-265,-230,-265v-167,0,-264,104,-290,265r520,0xm770,-350v-9,-40,-15,-86,-15,-135r-199,9v-149,15,-272,45,-276,196v-4,147,204,170,319,108v67,-36,116,-96,165,-164v3,-4,5,-9,6,-14xm880,-865v80,-99,201,-175,365,-175v310,0,406,230,395,555r-710,0v10,213,116,341,330,345v155,3,266,-40,365,-100r20,165v-117,60,-237,102,-410,100v-200,-3,-326,-92,-405,-221v-98,115,-207,221,-410,221v-149,0,-250,-71,-300,-173v-56,-114,-6,-255,58,-326v111,-122,340,-149,577,-151r0,-85v-5,-135,-121,-170,-260,-170v-138,0,-206,67,-295,125r10,-195v26,-11,51,-21,74,-32v73,-33,149,-60,256,-58v163,2,276,70,340,175xm1265,-1600r-420,430r-160,0r350,-430r230,0","w":1745},"\u01e3":{"d":"1460,-625v-4,-157,-78,-265,-230,-265v-167,0,-264,104,-290,265r520,0xm770,-350v-9,-40,-15,-86,-15,-135r-199,9v-149,15,-272,45,-276,196v-4,147,204,170,319,108v67,-36,116,-96,165,-164v3,-4,5,-9,6,-14xm880,-865v80,-99,201,-175,365,-175v310,0,406,230,395,555r-710,0v10,213,116,341,330,345v155,3,266,-40,365,-100r20,165v-117,60,-237,102,-410,100v-200,-3,-326,-92,-405,-221v-98,115,-207,221,-410,221v-149,0,-250,-71,-300,-173v-56,-114,-6,-255,58,-326v111,-122,340,-149,577,-151r0,-85v-5,-135,-121,-170,-260,-170v-138,0,-206,67,-295,125r10,-195v26,-11,51,-21,74,-32v73,-33,149,-60,256,-58v163,2,276,70,340,175xm490,-1390r750,0r0,150r-750,0r0,-150","w":1745},"\u1ea4":{"d":"433,-540r507,0r-255,-725xm994,-385r-615,0r-134,385r-205,0r94,-232r446,-1228r215,0r445,1228r95,232r-205,0xm262,-1600r340,-430r170,0r340,430r-150,0r-275,-280r-275,280r-150,0xm1087,-2565r-420,430r-160,0r350,-430r230,0","w":1395},"\u1ea6":{"d":"433,-540r507,0r-255,-725xm994,-385r-615,0r-134,385r-205,0r94,-232r446,-1228r215,0r445,1228r95,232r-205,0xm262,-1600r340,-430r170,0r340,430r-150,0r-275,-280r-275,280r-150,0xm527,-2565r350,430r-160,0r-420,-430r230,0","w":1395},"\u1eaa":{"d":"433,-540r507,0r-255,-725xm994,-385r-615,0r-134,385r-205,0r94,-232r446,-1228r215,0r445,1228r95,232r-205,0xm262,-1600r340,-430r170,0r340,430r-150,0r-275,-280r-275,280r-150,0xm522,-2255v-51,-3,-80,38,-85,85r-105,0v2,-104,42,-192,112,-228v148,-77,256,70,408,78v48,3,79,-42,85,-85r105,0v-6,137,-64,250,-198,250v-125,0,-209,-94,-322,-100","w":1395},"\u1ea8":{"d":"433,-540r507,0r-255,-725xm994,-385r-615,0r-134,385r-205,0r94,-232r446,-1228r215,0r445,1228r95,232r-205,0xm262,-1600r340,-430r170,0r340,430r-150,0r-275,-280r-275,280r-150,0xm670,-2620v120,4,225,56,225,170v0,127,-147,135,-159,259v-3,27,-6,60,-6,101r-120,0v0,-108,19,-183,73,-235v32,-32,87,-56,87,-110v0,-57,-48,-81,-115,-80v-66,0,-114,34,-150,70r-25,-105v42,-37,110,-73,190,-70","w":1395},"\u1eac":{"d":"433,-540r507,0r-255,-725xm994,-385r-615,0r-134,385r-205,0r94,-232r446,-1228r215,0r445,1228r95,232r-205,0xm687,479v-81,0,-135,-54,-135,-135v0,-81,54,-135,135,-135v81,0,135,54,135,135v0,81,-54,135,-135,135xm262,-1600r340,-430r170,0r340,430r-150,0r-275,-280r-275,280r-150,0","w":1395},"\u0102":{"d":"433,-540r507,0r-255,-725xm994,-385r-615,0r-134,385r-205,0r94,-232r446,-1228r215,0r445,1228r95,232r-205,0xm1062,-1980v-5,177,-95,301,-219,365v-90,46,-225,47,-314,0v-125,-64,-211,-187,-217,-365r120,0v15,109,75,195,163,230v182,73,319,-64,345,-230r122,0","w":1395},"\u1eae":{"d":"433,-540r507,0r-255,-725xm994,-385r-615,0r-134,385r-205,0r94,-232r446,-1228r215,0r445,1228r95,232r-205,0xm1062,-1980v-5,177,-95,301,-219,365v-90,46,-225,47,-314,0v-125,-64,-211,-187,-217,-365r120,0v15,109,75,195,163,230v182,73,319,-64,345,-230r122,0xm1087,-2565r-420,430r-160,0r350,-430r230,0","w":1395},"\u1eb0":{"d":"433,-540r507,0r-255,-725xm994,-385r-615,0r-134,385r-205,0r94,-232r446,-1228r215,0r445,1228r95,232r-205,0xm1062,-1980v-5,177,-95,301,-219,365v-90,46,-225,47,-314,0v-125,-64,-211,-187,-217,-365r120,0v15,109,75,195,163,230v182,73,319,-64,345,-230r122,0xm527,-2565r350,430r-160,0r-420,-430r230,0","w":1395},"\u1eb4":{"d":"433,-540r507,0r-255,-725xm994,-385r-615,0r-134,385r-205,0r94,-232r446,-1228r215,0r445,1228r95,232r-205,0xm1062,-1980v-5,177,-95,301,-219,365v-90,46,-225,47,-314,0v-125,-64,-211,-187,-217,-365r120,0v15,109,75,195,163,230v182,73,319,-64,345,-230r122,0xm522,-2255v-51,-3,-80,38,-85,85r-105,0v2,-104,42,-192,112,-228v148,-77,256,70,408,78v48,3,79,-42,85,-85r105,0v-6,137,-64,250,-198,250v-125,0,-209,-94,-322,-100","w":1395},"\u1eb2":{"d":"433,-540r507,0r-255,-725xm994,-385r-615,0r-134,385r-205,0r94,-232r446,-1228r215,0r445,1228r95,232r-205,0xm1062,-1980v-5,177,-95,301,-219,365v-90,46,-225,47,-314,0v-125,-64,-211,-187,-217,-365r120,0v15,109,75,195,163,230v182,73,319,-64,345,-230r122,0xm670,-2620v120,4,225,56,225,170v0,127,-147,135,-159,259v-3,27,-6,60,-6,101r-120,0v0,-108,19,-183,73,-235v32,-32,87,-56,87,-110v0,-57,-48,-81,-115,-80v-66,0,-114,34,-150,70r-25,-105v42,-37,110,-73,190,-70","w":1395},"\u1eb6":{"d":"433,-540r507,0r-255,-725xm994,-385r-615,0r-134,385r-205,0r94,-232r446,-1228r215,0r445,1228r95,232r-205,0xm687,479v-81,0,-135,-54,-135,-135v0,-81,54,-135,135,-135v81,0,135,54,135,135v0,81,-54,135,-135,135xm1062,-1980v-5,177,-95,301,-219,365v-90,46,-225,47,-314,0v-125,-64,-211,-187,-217,-365r120,0v15,109,75,195,163,230v182,73,319,-64,345,-230r122,0","w":1395},"\u01cd":{"d":"433,-540r507,0r-255,-725xm994,-385r-615,0r-134,385r-205,0r94,-232r446,-1228r215,0r445,1228r95,232r-205,0xm412,-2030r275,280r275,-280r150,0r-340,430r-170,0r-340,-430r150,0","w":1395},"\u0100":{"d":"433,-540r507,0r-255,-725xm994,-385r-615,0r-134,385r-205,0r94,-232r446,-1228r215,0r445,1228r95,232r-205,0xm312,-1820r750,0r0,150r-750,0r0,-150","w":1395},"\u01de":{"d":"433,-540r507,0r-255,-725xm994,-385r-615,0r-134,385r-205,0r94,-232r446,-1228r215,0r445,1228r95,232r-205,0xm477,-1640v-80,0,-127,-55,-127,-135v0,-80,47,-135,127,-135v80,0,128,55,128,135v0,80,-48,135,-128,135xm897,-1640v-80,0,-127,-55,-127,-135v0,-80,47,-135,127,-135v80,0,128,55,128,135v0,80,-48,135,-128,135xm312,-2225r750,0r0,150r-750,0r0,-150","w":1395},"\u0226":{"d":"433,-540r507,0r-255,-725xm994,-385r-615,0r-134,385r-205,0r94,-232r446,-1228r215,0r445,1228r95,232r-205,0xm687,-1640v-81,0,-135,-54,-135,-135v0,-81,54,-135,135,-135v81,0,135,54,135,135v0,81,-54,135,-135,135","w":1395},"\u01e0":{"d":"433,-540r507,0r-255,-725xm994,-385r-615,0r-134,385r-205,0r94,-232r446,-1228r215,0r445,1228r95,232r-205,0xm687,-1640v-81,0,-135,-54,-135,-135v0,-81,54,-135,135,-135v81,0,135,54,135,135v0,81,-54,135,-135,135xm312,-2225r750,0r0,150r-750,0r0,-150","w":1395},"\u01fa":{"d":"433,-540r507,0r-255,-725xm994,-385r-615,0r-134,385r-205,0r94,-232r446,-1228r215,0r445,1228r95,232r-205,0xm771,-1616v-190,70,-351,-99,-283,-283v34,-95,160,-162,283,-115v94,36,164,161,115,283v-21,52,-62,96,-115,115xm687,-1715v59,0,100,-41,100,-100v0,-59,-41,-100,-100,-100v-59,0,-100,41,-100,100v0,59,41,100,100,100xm1087,-2565r-420,430r-160,0r350,-430r230,0","w":1395},"\u1ea2":{"d":"433,-540r507,0r-255,-725xm994,-385r-615,0r-134,385r-205,0r94,-232r446,-1228r215,0r445,1228r95,232r-205,0xm670,-2085v120,4,225,56,225,170v0,127,-147,135,-159,259v-3,27,-6,60,-6,101r-120,0v0,-108,19,-183,73,-235v32,-32,87,-56,87,-110v0,-57,-48,-81,-115,-80v-66,0,-114,34,-150,70r-25,-105v42,-37,110,-73,190,-70","w":1395},"\u1ea0":{"d":"433,-540r507,0r-255,-725xm994,-385r-615,0r-134,385r-205,0r94,-232r446,-1228r215,0r445,1228r95,232r-205,0xm687,479v-81,0,-135,-54,-135,-135v0,-81,54,-135,135,-135v81,0,135,54,135,135v0,81,-54,135,-135,135","w":1395},"\u01fc":{"d":"905,0v16,-116,11,-241,14,-385r-449,0r-190,385r-200,0r62,-104r103,-194r565,-1162r845,0r0,165r-545,0r0,450r470,0r0,160r-470,0r0,520r414,-2v67,-1,121,-6,161,-13r0,180r-780,0xm547,-540r372,0r1,-755xm1415,-2030r-420,430r-160,0r350,-430r230,0","w":1805},"\u01e2":{"d":"905,0v16,-116,11,-241,14,-385r-449,0r-190,385r-200,0r62,-104r103,-194r565,-1162r845,0r0,165r-545,0r0,450r470,0r0,160r-470,0r0,520r414,-2v67,-1,121,-6,161,-13r0,180r-780,0xm547,-540r372,0r1,-755xm640,-1820r750,0r0,150r-750,0r0,-150","w":1805},"\u1e03":{"d":"330,-825v89,-111,193,-215,385,-215v186,0,273,143,319,299v38,131,32,310,-8,434v-72,223,-264,369,-569,323v-114,-17,-212,-50,-312,-81r-1,-1311v-1,-43,-3,-85,-5,-124v-2,-39,-5,-72,-9,-100r200,0r0,775xm330,-185v99,44,252,84,367,28v115,-56,183,-178,183,-348v0,-189,-46,-360,-225,-360v-128,0,-202,85,-263,167v-25,34,-45,72,-62,113r0,400xm665,-1215v-81,0,-135,-54,-135,-135v0,-81,54,-135,135,-135v81,0,135,54,135,135v0,81,-54,135,-135,135","w":1155},"\u1e07":{"d":"330,-825v89,-111,193,-215,385,-215v186,0,273,143,319,299v38,131,32,310,-8,434v-72,223,-264,369,-569,323v-114,-17,-212,-50,-312,-81r-1,-1311v-1,-43,-3,-85,-5,-124v-2,-39,-5,-72,-9,-100r200,0r0,775xm330,-185v99,44,252,84,367,28v115,-56,183,-178,183,-348v0,-189,-46,-360,-225,-360v-128,0,-202,85,-263,167v-25,34,-45,72,-62,113r0,400xm215,269r750,0r0,150r-750,0r0,-150","w":1155},"\u1e05":{"d":"330,-825v89,-111,193,-215,385,-215v186,0,273,143,319,299v38,131,32,310,-8,434v-72,223,-264,369,-569,323v-114,-17,-212,-50,-312,-81r-1,-1311v-1,-43,-3,-85,-5,-124v-2,-39,-5,-72,-9,-100r200,0r0,775xm330,-185v99,44,252,84,367,28v115,-56,183,-178,183,-348v0,-189,-46,-360,-225,-360v-128,0,-202,85,-263,167v-25,34,-45,72,-62,113r0,400xm590,479v-81,0,-135,-54,-135,-135v0,-81,54,-135,135,-135v81,0,135,54,135,135v0,81,-54,135,-135,135","w":1155},"\u0253":{"d":"330,-185v99,44,252,84,367,28v115,-56,183,-178,183,-348v0,-189,-46,-360,-225,-360v-128,0,-202,85,-263,167v-25,34,-45,72,-62,113r0,400xm330,-825v89,-111,193,-215,385,-215v186,0,273,143,319,299v38,131,32,310,-8,435v-72,223,-265,371,-569,324v-114,-17,-212,-52,-312,-83r0,-1035v0,-328,131,-523,460,-520v108,1,186,25,265,76r-80,140v-63,-36,-112,-56,-200,-56v-192,0,-260,136,-260,330r0,305","w":1155},"\u1e02":{"d":"820,-800v180,48,320,149,320,380v0,307,-214,437,-535,430r-445,-10v15,-88,15,-202,15,-311r-1,-963v-1,-40,-3,-76,-5,-108v-2,-32,-5,-58,-9,-78r312,-10v327,-13,599,30,593,350v-3,181,-113,267,-245,320xm945,-420v0,-201,-128,-281,-345,-280r-235,0r0,545r245,5v194,-3,335,-73,335,-270xm590,-1315r-225,5r0,455r195,0v181,-2,307,-63,310,-235v3,-169,-107,-229,-280,-225xm615,-1640v-81,0,-135,-54,-135,-135v0,-81,54,-135,135,-135v81,0,135,54,135,135v0,81,-54,135,-135,135","w":1285},"\u1e06":{"d":"820,-800v180,48,320,149,320,380v0,307,-214,437,-535,430r-445,-10v15,-88,15,-202,15,-311r-1,-963v-1,-40,-3,-76,-5,-108v-2,-32,-5,-58,-9,-78r312,-10v327,-13,599,30,593,350v-3,181,-113,267,-245,320xm945,-420v0,-201,-128,-281,-345,-280r-235,0r0,545r245,5v194,-3,335,-73,335,-270xm590,-1315r-225,5r0,455r195,0v181,-2,307,-63,310,-235v3,-169,-107,-229,-280,-225xm240,269r750,0r0,150r-750,0r0,-150","w":1285},"\u1e04":{"d":"820,-800v180,48,320,149,320,380v0,307,-214,437,-535,430r-445,-10v15,-88,15,-202,15,-311r-1,-963v-1,-40,-3,-76,-5,-108v-2,-32,-5,-58,-9,-78r312,-10v327,-13,599,30,593,350v-3,181,-113,267,-245,320xm945,-420v0,-201,-128,-281,-345,-280r-235,0r0,545r245,5v194,-3,335,-73,335,-270xm590,-1315r-225,5r0,455r195,0v181,-2,307,-63,310,-235v3,-169,-107,-229,-280,-225xm615,479v-81,0,-135,-54,-135,-135v0,-81,54,-135,135,-135v81,0,135,54,135,135v0,81,-54,135,-135,135","w":1285},"\u0181":{"d":"1152,-801v180,48,320,149,320,380v0,308,-230,438,-554,430r-426,-10v15,-88,14,-202,15,-311r0,-1003v-136,2,-246,45,-299,131v-50,79,-27,219,17,284r-170,40v-27,-55,-55,-126,-55,-205v0,-311,259,-400,579,-405r276,0v183,0,320,28,409,84v89,56,133,145,133,265v0,181,-113,267,-245,320xm1277,-420v0,-201,-150,-281,-365,-280r-215,0r0,545r225,5v197,-4,355,-70,355,-270xm1202,-1091v7,-243,-259,-223,-505,-224r0,459r175,0v184,-3,325,-61,330,-235","w":1617},"\u0107":{"d":"925,-85v-88,68,-189,112,-345,110v-233,-3,-376,-127,-447,-300v-50,-124,-50,-299,-1,-428v73,-193,225,-333,483,-337v131,-2,224,34,300,85r-35,180v-98,-78,-259,-138,-404,-75v-121,52,-191,175,-191,350v0,167,67,284,184,334v158,67,343,-2,436,-94xm970,-1600r-420,430r-160,0r350,-430r230,0","w":1020},"\u0109":{"d":"925,-85v-88,68,-189,112,-345,110v-233,-3,-376,-127,-447,-300v-50,-124,-50,-299,-1,-428v73,-193,225,-333,483,-337v131,-2,224,34,300,85r-35,180v-98,-78,-259,-138,-404,-75v-121,52,-191,175,-191,350v0,167,67,284,184,334v158,67,343,-2,436,-94xm145,-1170r340,-430r170,0r340,430r-150,0r-275,-280r-275,280r-150,0","w":1020},"\u010d":{"d":"925,-85v-88,68,-189,112,-345,110v-233,-3,-376,-127,-447,-300v-50,-124,-50,-299,-1,-428v73,-193,225,-333,483,-337v131,-2,224,34,300,85r-35,180v-98,-78,-259,-138,-404,-75v-121,52,-191,175,-191,350v0,167,67,284,184,334v158,67,343,-2,436,-94xm295,-1600r275,280r275,-280r150,0r-340,430r-170,0r-340,-430r150,0","w":1020},"\u010b":{"d":"925,-85v-88,68,-189,112,-345,110v-233,-3,-376,-127,-447,-300v-50,-124,-50,-299,-1,-428v73,-193,225,-333,483,-337v131,-2,224,34,300,85r-35,180v-98,-78,-259,-138,-404,-75v-121,52,-191,175,-191,350v0,167,67,284,184,334v158,67,343,-2,436,-94xm570,-1210v-81,0,-135,-54,-135,-135v0,-81,54,-135,135,-135v81,0,135,54,135,135v0,81,-54,135,-135,135","w":1020},"\u1e09":{"d":"970,-1600r-420,430r-160,0r350,-430r230,0xm925,-85v-91,71,-202,116,-365,109r0,71v157,-40,253,123,182,257v-40,75,-123,126,-232,128v-56,1,-96,-20,-135,-40r10,-100v70,54,236,37,235,-70v0,-51,-44,-90,-97,-90v-32,0,-68,13,-88,25r0,-201v-207,-64,-340,-228,-340,-494v0,-253,125,-422,305,-506v157,-74,407,-46,515,41r-35,180v-98,-78,-259,-138,-404,-75v-121,52,-191,175,-191,350v0,167,67,284,184,334v158,67,343,-2,436,-94","w":1020},"\u0254":{"d":"445,-1040v307,0,455,193,455,505v0,257,-99,436,-273,521v-119,58,-303,44,-403,-16v-55,-33,-103,-78,-129,-135r115,-125v50,100,186,196,326,126v111,-55,174,-179,174,-351v0,-214,-87,-360,-295,-360v-123,0,-191,53,-270,125r-35,-180v87,-62,197,-110,335,-110","w":995},"\u0106":{"d":"760,-150v192,0,326,-87,430,-185r40,195v-153,146,-506,221,-753,114v-243,-105,-382,-339,-382,-684v0,-373,161,-614,421,-726v182,-78,439,-53,589,24v37,19,74,40,110,67r-60,180v-97,-85,-213,-150,-385,-150v-333,0,-480,237,-480,580v0,254,101,445,270,537v58,32,125,48,200,48xm1150,-2030r-420,430r-160,0r350,-430r230,0","w":1355},"\u0108":{"d":"760,-150v192,0,326,-87,430,-185r40,195v-153,146,-506,221,-753,114v-243,-105,-382,-339,-382,-684v0,-373,161,-614,421,-726v182,-78,439,-53,589,24v37,19,74,40,110,67r-60,180v-97,-85,-213,-150,-385,-150v-333,0,-480,237,-480,580v0,254,101,445,270,537v58,32,125,48,200,48xm325,-1600r340,-430r170,0r340,430r-150,0r-275,-280r-275,280r-150,0","w":1355},"\u010c":{"d":"760,-150v192,0,326,-87,430,-185r40,195v-153,146,-506,221,-753,114v-243,-105,-382,-339,-382,-684v0,-373,161,-614,421,-726v182,-78,439,-53,589,24v37,19,74,40,110,67r-60,180v-97,-85,-213,-150,-385,-150v-333,0,-480,237,-480,580v0,254,101,445,270,537v58,32,125,48,200,48xm475,-2030r275,280r275,-280r150,0r-340,430r-170,0r-340,-430r150,0","w":1355},"\u010a":{"d":"760,-150v192,0,326,-87,430,-185r40,195v-153,146,-506,221,-753,114v-243,-105,-382,-339,-382,-684v0,-373,161,-614,421,-726v182,-78,439,-53,589,24v37,19,74,40,110,67r-60,180v-97,-85,-213,-150,-385,-150v-333,0,-480,237,-480,580v0,254,101,445,270,537v58,32,125,48,200,48xm750,-1640v-81,0,-135,-54,-135,-135v0,-81,54,-135,135,-135v81,0,135,54,135,135v0,81,-54,135,-135,135","w":1355},"\u1e08":{"d":"1150,-2030r-420,430r-160,0r350,-430r230,0xm760,-150v192,0,326,-87,430,-185r40,195v-111,98,-280,159,-480,165r0,70v157,-40,253,123,182,257v-40,75,-123,126,-232,128v-56,1,-96,-20,-135,-40r10,-100v70,54,236,37,235,-70v0,-51,-44,-90,-97,-90v-32,0,-68,13,-88,25r0,-190v-347,-64,-530,-320,-530,-725v0,-373,161,-614,421,-726v182,-78,439,-53,589,24v37,19,74,40,110,67r-60,180v-97,-85,-213,-150,-385,-150v-333,0,-480,237,-480,580v0,254,101,445,270,537v58,32,125,48,200,48","w":1355},"\u20ac":{"d":"153,-675r4,-125r-137,0r40,-145r122,0v58,-223,191,-384,390,-459v152,-57,345,-28,453,38v30,18,63,39,97,64r-57,171v-87,-75,-165,-142,-319,-142v-220,0,-325,149,-380,328r490,0r-40,145r-475,0v-3,40,-4,84,-2,125r449,0r-40,145r-386,0v40,151,118,275,246,336v40,19,83,28,129,28v173,-4,269,-87,361,-176r38,185v-123,126,-392,208,-612,121v-198,-78,-316,-256,-358,-494r-146,0r40,-145r93,0"},"\u0186":{"d":"140,-1315v119,-125,369,-218,598,-148v290,89,462,338,462,718v0,359,-152,601,-395,718v-202,97,-489,40,-619,-67v-34,-28,-66,-58,-91,-94r103,-163v81,110,199,201,382,201v213,0,328,-152,389,-327v49,-137,47,-346,3,-486v-61,-191,-179,-347,-412,-347v-176,0,-293,98,-380,210","w":1320},"\u1e0b":{"d":"845,-795v-94,-55,-250,-111,-374,-49v-113,56,-181,182,-181,354v0,211,56,355,250,355v121,0,194,-89,251,-167v23,-31,40,-65,54,-98r0,-395xm845,-955v-3,-217,11,-470,-25,-645r210,0r0,1070v-1,218,24,388,75,530r-180,0v-18,-45,-42,-126,-55,-185v-84,117,-189,210,-365,210v-207,0,-319,-122,-372,-285v-42,-130,-35,-316,9,-440v67,-190,198,-340,438,-340v108,0,191,46,265,85xm505,-1210v-81,0,-135,-54,-135,-135v0,-81,54,-135,135,-135v81,0,135,54,135,135v0,81,-54,135,-135,135","w":1190},"\u1e0f":{"d":"845,-795v-94,-55,-250,-111,-374,-49v-113,56,-181,182,-181,354v0,211,56,355,250,355v121,0,194,-89,251,-167v23,-31,40,-65,54,-98r0,-395xm845,-955v-3,-217,11,-470,-25,-645r210,0r0,1070v-1,218,24,388,75,530r-180,0v-18,-45,-42,-126,-55,-185v-84,117,-189,210,-365,210v-207,0,-319,-122,-372,-285v-42,-130,-35,-316,9,-440v67,-190,198,-340,438,-340v108,0,191,46,265,85xm230,269r750,0r0,150r-750,0r0,-150","w":1190},"\u1e0d":{"d":"845,-795v-94,-55,-250,-111,-374,-49v-113,56,-181,182,-181,354v0,211,56,355,250,355v121,0,194,-89,251,-167v23,-31,40,-65,54,-98r0,-395xm845,-955v-3,-217,11,-470,-25,-645r210,0r0,1070v-1,218,24,388,75,530r-180,0v-18,-45,-42,-126,-55,-185v-84,117,-189,210,-365,210v-207,0,-319,-122,-372,-285v-42,-130,-35,-316,9,-440v67,-190,198,-340,438,-340v108,0,191,46,265,85xm605,479v-81,0,-135,-54,-135,-135v0,-81,54,-135,135,-135v81,0,135,54,135,135v0,81,-54,135,-135,135","w":1190},"\u0111":{"d":"845,-795v-94,-55,-250,-111,-374,-49v-113,56,-181,182,-181,354v0,211,56,355,250,355v121,0,194,-89,251,-167v23,-31,40,-65,54,-98r0,-395xm580,-1040v108,0,191,46,265,85r0,-220r-280,0r0,-135r279,0v-3,-110,-6,-205,-24,-290r210,0r0,290r160,0r0,135r-160,0v9,400,-36,891,75,1175r-180,0v-18,-45,-42,-126,-55,-185v-84,117,-189,210,-365,210v-207,0,-319,-122,-372,-285v-42,-130,-35,-316,9,-440v67,-190,198,-340,438,-340","w":1190},"\u0257":{"d":"845,-795v-94,-55,-250,-111,-374,-49v-113,56,-181,182,-181,354v0,211,56,355,250,355v121,0,194,-89,251,-167v23,-31,40,-65,54,-98r0,-395xm1190,-1460v-112,0,-161,89,-160,210r0,720v-1,218,24,388,75,530r-180,0v-18,-45,-42,-126,-55,-185v-84,117,-189,210,-365,210v-207,0,-319,-122,-372,-285v-42,-130,-35,-316,9,-440v67,-190,198,-340,438,-340v108,0,191,46,265,85r0,-255v4,-243,109,-410,345,-410v88,0,165,31,220,70r-46,150v-43,-32,-106,-60,-174,-60","w":1305},"\u0256":{"d":"1337,405v-72,52,-221,93,-323,41v-113,-58,-169,-186,-169,-360r0,-271v-80,109,-161,210,-340,210v-207,0,-319,-122,-372,-285v-42,-130,-35,-316,9,-440v67,-190,198,-340,438,-340v108,0,191,46,265,85v-3,-217,11,-470,-25,-645r210,0r0,1655v3,121,25,238,139,238v49,0,98,-17,126,-43xm845,-795v-94,-55,-250,-111,-374,-49v-113,56,-181,182,-181,354v0,211,56,355,250,355v121,0,194,-89,251,-167v23,-31,40,-65,54,-98r0,-395","w":1207},"\u00f0":{"d":"570,-840v-202,0,-290,146,-290,353v0,207,90,352,290,352v201,0,290,-147,290,-352v0,-207,-90,-353,-290,-353xm493,-1620v73,45,138,102,198,165r220,-136r85,105r-217,135v142,192,271,423,271,745v0,371,-131,631,-490,631v-309,0,-465,-196,-465,-512v0,-265,130,-430,331,-497v130,-43,281,-4,358,59v21,17,45,36,68,57v-45,-146,-127,-283,-215,-395r-233,145r-83,-108r225,-139v-66,-66,-142,-126,-227,-167","w":1160},"\u010e":{"d":"160,0v19,-132,15,-301,15,-455r-1,-819v-1,-40,-3,-76,-5,-108v-2,-32,-5,-58,-9,-78r455,-10v458,13,700,260,700,730v0,430,-210,667,-565,736v-185,36,-387,5,-590,4xm590,-1310r-225,5r0,1140v23,2,53,5,91,7v139,10,289,-2,386,-52v172,-88,278,-249,278,-510v0,-377,-168,-585,-530,-590xm440,-2030r275,280r275,-280r150,0r-340,430r-170,0r-340,-430r150,0","w":1435},"\u1e0a":{"d":"160,0v19,-132,15,-301,15,-455r-1,-819v-1,-40,-3,-76,-5,-108v-2,-32,-5,-58,-9,-78r455,-10v458,13,700,260,700,730v0,430,-210,667,-565,736v-185,36,-387,5,-590,4xm590,-1310r-225,5r0,1140v23,2,53,5,91,7v139,10,289,-2,386,-52v172,-88,278,-249,278,-510v0,-377,-168,-585,-530,-590xm715,-1640v-81,0,-135,-54,-135,-135v0,-81,54,-135,135,-135v81,0,135,54,135,135v0,81,-54,135,-135,135","w":1435},"\u1e0e":{"d":"160,0v19,-132,15,-301,15,-455r-1,-819v-1,-40,-3,-76,-5,-108v-2,-32,-5,-58,-9,-78r455,-10v458,13,700,260,700,730v0,430,-210,667,-565,736v-185,36,-387,5,-590,4xm590,-1310r-225,5r0,1140v23,2,53,5,91,7v139,10,289,-2,386,-52v172,-88,278,-249,278,-510v0,-377,-168,-585,-530,-590xm340,269r750,0r0,150r-750,0r0,-150","w":1435},"\u1e0c":{"d":"160,0v19,-132,15,-301,15,-455r-1,-819v-1,-40,-3,-76,-5,-108v-2,-32,-5,-58,-9,-78r455,-10v458,13,700,260,700,730v0,430,-210,667,-565,736v-185,36,-387,5,-590,4xm590,-1310r-225,5r0,1140v23,2,53,5,91,7v139,10,289,-2,386,-52v172,-88,278,-249,278,-510v0,-377,-168,-585,-530,-590xm715,479v-81,0,-135,-54,-135,-135v0,-81,54,-135,135,-135v81,0,135,54,135,135v0,81,-54,135,-135,135","w":1435},"\u00d0":{"d":"160,0v25,-203,12,-458,15,-690r-175,0r0,-145r175,0r-1,-439v-1,-40,-3,-76,-5,-108v-2,-32,-5,-58,-9,-78r455,-10v458,13,700,260,700,730v0,430,-210,667,-565,736v-185,36,-387,5,-590,4xm590,-1310r-225,5r0,470r380,0r0,145r-380,0r0,525v23,2,53,5,91,7v139,10,289,-2,386,-52v172,-88,278,-249,278,-510v0,-377,-168,-585,-530,-590","w":1435},"\u0110":{"d":"160,0v25,-203,12,-458,15,-690r-175,0r0,-145r175,0r-1,-439v-1,-40,-3,-76,-5,-108v-2,-32,-5,-58,-9,-78r455,-10v458,13,700,260,700,730v0,430,-210,667,-565,736v-185,36,-387,5,-590,4xm590,-1310r-225,5r0,470r380,0r0,145r-380,0r0,525v23,2,53,5,91,7v139,10,289,-2,386,-52v172,-88,278,-249,278,-510v0,-377,-168,-585,-530,-590","w":1435},"\u0189":{"d":"160,0v25,-203,12,-458,15,-690r-175,0r0,-145r175,0r-1,-439v-1,-40,-3,-76,-5,-108v-2,-32,-5,-58,-9,-78r455,-10v458,13,700,260,700,730v0,430,-210,667,-565,736v-185,36,-387,5,-590,4xm590,-1310r-225,5r0,470r380,0r0,145r-380,0r0,525v23,2,53,5,91,7v139,10,289,-2,386,-52v172,-88,278,-249,278,-510v0,-377,-168,-585,-530,-590","w":1435},"\u018a":{"d":"885,-1470v487,4,760,235,760,730v0,430,-210,667,-565,736v-185,36,-387,5,-590,4v15,-88,14,-202,15,-311r0,-999v-172,7,-319,60,-325,230v-3,78,16,132,45,180r-170,40v-27,-55,-55,-126,-55,-205v0,-311,259,-400,579,-405r306,0xm1450,-720v2,-399,-201,-589,-590,-590r-165,0r0,1145v23,2,53,5,91,7v139,10,289,-2,386,-52v172,-88,278,-249,278,-510","w":1765},"\u1ebf":{"d":"995,-75v-151,82,-403,144,-603,67v-181,-70,-297,-234,-297,-487v0,-254,102,-428,280,-507v59,-26,126,-38,200,-38v319,2,429,225,414,555r-709,0v9,212,108,345,320,345v154,0,268,-34,375,-100xm810,-625v-3,-165,-88,-265,-250,-265v-167,0,-247,104,-272,265r522,0xm144,-1170r340,-430r170,0r340,430r-150,0r-275,-280r-275,280r-150,0xm969,-2135r-420,430r-160,0r350,-430r230,0","w":1095},"\u1ec1":{"d":"995,-75v-151,82,-403,144,-603,67v-181,-70,-297,-234,-297,-487v0,-254,102,-428,280,-507v59,-26,126,-38,200,-38v319,2,429,225,414,555r-709,0v9,212,108,345,320,345v154,0,268,-34,375,-100xm810,-625v-3,-165,-88,-265,-250,-265v-167,0,-247,104,-272,265r522,0xm144,-1170r340,-430r170,0r340,430r-150,0r-275,-280r-275,280r-150,0xm409,-2135r350,430r-160,0r-420,-430r230,0","w":1095},"\u1ec5":{"d":"995,-75v-151,82,-403,144,-603,67v-181,-70,-297,-234,-297,-487v0,-254,102,-428,280,-507v59,-26,126,-38,200,-38v319,2,429,225,414,555r-709,0v9,212,108,345,320,345v154,0,268,-34,375,-100xm810,-625v-3,-165,-88,-265,-250,-265v-167,0,-247,104,-272,265r522,0xm144,-1170r340,-430r170,0r340,430r-150,0r-275,-280r-275,280r-150,0xm404,-1825v-51,-3,-80,38,-85,85r-105,0v2,-104,42,-192,112,-228v148,-77,256,70,408,78v48,3,79,-42,85,-85r105,0v-6,137,-64,250,-198,250v-125,0,-209,-94,-322,-100","w":1095},"\u1ec3":{"d":"995,-75v-151,82,-403,144,-603,67v-181,-70,-297,-234,-297,-487v0,-254,102,-428,280,-507v59,-26,126,-38,200,-38v319,2,429,225,414,555r-709,0v9,212,108,345,320,345v154,0,268,-34,375,-100xm810,-625v-3,-165,-88,-265,-250,-265v-167,0,-247,104,-272,265r522,0xm144,-1170r340,-430r170,0r340,430r-150,0r-275,-280r-275,280r-150,0xm552,-2190v120,4,225,56,225,170v0,127,-147,135,-159,259v-3,27,-6,60,-6,101r-120,0v0,-108,19,-183,73,-235v32,-32,87,-56,87,-110v0,-57,-48,-81,-115,-80v-66,0,-114,34,-150,70r-25,-105v42,-37,110,-73,190,-70","w":1095},"\u1ec7":{"d":"995,-75v-151,82,-403,144,-603,67v-181,-70,-297,-234,-297,-487v0,-254,102,-428,280,-507v59,-26,126,-38,200,-38v319,2,429,225,414,555r-709,0v9,212,108,345,320,345v154,0,268,-34,375,-100xm810,-625v-3,-165,-88,-265,-250,-265v-167,0,-247,104,-272,265r522,0xm569,479v-81,0,-135,-54,-135,-135v0,-81,54,-135,135,-135v81,0,135,54,135,135v0,81,-54,135,-135,135xm144,-1170r340,-430r170,0r340,430r-150,0r-275,-280r-275,280r-150,0","w":1095},"\u0115":{"d":"995,-75v-151,82,-403,144,-603,67v-181,-70,-297,-234,-297,-487v0,-254,102,-428,280,-507v59,-26,126,-38,200,-38v319,2,429,225,414,555r-709,0v9,212,108,345,320,345v154,0,268,-34,375,-100xm810,-625v-3,-165,-88,-265,-250,-265v-167,0,-247,104,-272,265r522,0xm944,-1550v-5,177,-95,301,-219,365v-90,46,-225,47,-314,0v-125,-64,-211,-187,-217,-365r120,0v15,109,75,195,163,230v182,73,319,-64,345,-230r122,0","w":1095},"\u011b":{"d":"995,-75v-151,82,-403,144,-603,67v-181,-70,-297,-234,-297,-487v0,-254,102,-428,280,-507v59,-26,126,-38,200,-38v319,2,429,225,414,555r-709,0v9,212,108,345,320,345v154,0,268,-34,375,-100xm810,-625v-3,-165,-88,-265,-250,-265v-167,0,-247,104,-272,265r522,0xm294,-1600r275,280r275,-280r150,0r-340,430r-170,0r-340,-430r150,0","w":1095},"\u1ebd":{"d":"995,-75v-151,82,-403,144,-603,67v-181,-70,-297,-234,-297,-487v0,-254,102,-428,280,-507v59,-26,126,-38,200,-38v319,2,429,225,414,555r-709,0v9,212,108,345,320,345v154,0,268,-34,375,-100xm810,-625v-3,-165,-88,-265,-250,-265v-167,0,-247,104,-272,265r522,0xm404,-1290v-51,-3,-80,38,-85,85r-105,0v2,-104,42,-192,112,-228v148,-77,256,70,408,78v48,3,79,-42,85,-85r105,0v-6,137,-64,250,-198,250v-125,0,-209,-94,-322,-100","w":1095},"\u0113":{"d":"995,-75v-151,82,-403,144,-603,67v-181,-70,-297,-234,-297,-487v0,-254,102,-428,280,-507v59,-26,126,-38,200,-38v319,2,429,225,414,555r-709,0v9,212,108,345,320,345v154,0,268,-34,375,-100xm810,-625v-3,-165,-88,-265,-250,-265v-167,0,-247,104,-272,265r522,0xm194,-1390r750,0r0,150r-750,0r0,-150","w":1095},"\u1e17":{"d":"995,-75v-151,82,-403,144,-603,67v-181,-70,-297,-234,-297,-487v0,-254,102,-428,280,-507v59,-26,126,-38,200,-38v319,2,429,225,414,555r-709,0v9,212,108,345,320,345v154,0,268,-34,375,-100xm810,-625v-3,-165,-88,-265,-250,-265v-167,0,-247,104,-272,265r522,0xm194,-1390r750,0r0,150r-750,0r0,-150xm969,-1950r-420,430r-160,0r350,-430r230,0","w":1095},"\u1e15":{"d":"995,-75v-151,82,-403,144,-603,67v-181,-70,-297,-234,-297,-487v0,-254,102,-428,280,-507v59,-26,126,-38,200,-38v319,2,429,225,414,555r-709,0v9,212,108,345,320,345v154,0,268,-34,375,-100xm810,-625v-3,-165,-88,-265,-250,-265v-167,0,-247,104,-272,265r522,0xm194,-1390r750,0r0,150r-750,0r0,-150xm409,-1950r350,430r-160,0r-420,-430r230,0","w":1095},"\u0117":{"d":"995,-75v-151,82,-403,144,-603,67v-181,-70,-297,-234,-297,-487v0,-254,102,-428,280,-507v59,-26,126,-38,200,-38v319,2,429,225,414,555r-709,0v9,212,108,345,320,345v154,0,268,-34,375,-100xm810,-625v-3,-165,-88,-265,-250,-265v-167,0,-247,104,-272,265r522,0xm569,-1210v-81,0,-135,-54,-135,-135v0,-81,54,-135,135,-135v81,0,135,54,135,135v0,81,-54,135,-135,135","w":1095},"\u1ebb":{"d":"995,-75v-151,82,-403,144,-603,67v-181,-70,-297,-234,-297,-487v0,-254,102,-428,280,-507v59,-26,126,-38,200,-38v319,2,429,225,414,555r-709,0v9,212,108,345,320,345v154,0,268,-34,375,-100xm810,-625v-3,-165,-88,-265,-250,-265v-167,0,-247,104,-272,265r522,0xm552,-1655v120,4,225,56,225,170v0,127,-147,135,-159,259v-3,27,-6,60,-6,101r-120,0v0,-108,19,-183,73,-235v32,-32,87,-56,87,-110v0,-57,-48,-81,-115,-80v-66,0,-114,34,-150,70r-25,-105v42,-37,110,-73,190,-70","w":1095},"\u1eb9":{"d":"995,-75v-151,82,-403,144,-603,67v-181,-70,-297,-234,-297,-487v0,-254,102,-428,280,-507v59,-26,126,-38,200,-38v319,2,429,225,414,555r-709,0v9,212,108,345,320,345v154,0,268,-34,375,-100xm810,-625v-3,-165,-88,-265,-250,-265v-167,0,-247,104,-272,265r522,0xm569,479v-81,0,-135,-54,-135,-135v0,-81,54,-135,135,-135v81,0,135,54,135,135v0,81,-54,135,-135,135","w":1095},"\u0229":{"d":"420,1v-199,-69,-325,-230,-325,-496v0,-254,102,-428,280,-507v59,-26,126,-38,200,-38v319,2,429,225,414,555r-709,0v9,212,108,345,320,345v154,0,268,-34,375,-100r20,165v-124,63,-263,106,-450,99r0,71v157,-40,253,123,182,257v-40,75,-123,126,-232,128v-56,1,-96,-20,-135,-40r10,-100v70,54,236,37,235,-70v0,-51,-44,-90,-97,-90v-32,0,-68,13,-88,25r0,-204xm810,-625v-3,-165,-88,-265,-250,-265v-167,0,-247,104,-272,265r522,0","w":1095},"\u1e1d":{"d":"420,1v-199,-69,-325,-230,-325,-496v0,-254,102,-428,280,-507v59,-26,126,-38,200,-38v319,2,429,225,414,555r-709,0v9,212,108,345,320,345v154,0,268,-34,375,-100r20,165v-124,63,-263,106,-450,99r0,71v157,-40,253,123,182,257v-40,75,-123,126,-232,128v-56,1,-96,-20,-135,-40r10,-100v70,54,236,37,235,-70v0,-51,-44,-90,-97,-90v-32,0,-68,13,-88,25r0,-204xm944,-1550v-5,177,-94,301,-218,365v-90,46,-225,47,-314,0v-125,-64,-212,-187,-218,-365r120,0v15,109,74,195,162,230v182,73,320,-64,346,-230r122,0xm810,-625v-3,-165,-88,